{"biases":[[[1.0003325939178467],[0.1989845484495163],[0.30070701241493225],[0.21356505155563354],[0.46685782074928284],[0.032588597387075424],[0.47255808115005493],[1.5236891508102417],[0.3030068278312683],[0.26097503304481506],[0.8788493275642395],[-0.003700878471136093],[0.9346067309379578],[2.1717374324798584],[-0.45199596881866455],[-0.9968991279602051],[1.398423671722412],[0.2936118543148041],[3.073742389678955],[-2.324705123901367],[-1.437140941619873],[0.9185346961021423],[-2.496004104614258],[0.11870597302913666],[-1.6502026319503784],[-0.11261194944381714],[0.768388569355011],[-1.2233915328979492],[3.0140528678894043],[0.43868377804756165]],[[-1.1621304750442505],[-1.9926494359970093],[-3.562933921813965],[-1.6404529809951782],[-3.327303647994995],[-3.6406426429748535],[-4.231335639953613],[-2.828813314437866],[-0.7363831400871277],[-0.8117530941963196]]],"weights":[{"shape":[30,784],"data":[[0.07510398328304291,-0.4269987642765045,-0.6078270077705383,-1.2573553323745728,-0.22857001423835754,0.37810665369033813,-0.8944302797317505,-0.5114585757255554,0.30551019310951233,0.6583669781684875,-0.7350591421127319,0.27381473779678345,-1.8636338710784912,-0.7386142611503601,1.2952802181243896,-0.9154301285743713,-0.4558165669441223,-0.0505644865334034,1.3411215543746948,-1.1110764741897583,1.9927740097045898,-0.022905778139829636,0.7925671935081482,1.927219271659851,1.0563991069793701,-1.6479291915893555,1.5386950969696045,-0.3606581687927246,-1.2691653966903687,-1.204469084739685,-1.6702525615692139,-0.2194630652666092,1.5537060499191284,0.12276963144540787,0.16642425954341888,-0.5927704572677612,1.3922667503356934,0.7364355325698853,-1.01327645778656,0.7012518644332886,2.0497500896453857,-0.33993765711784363,0.17908510565757751,-0.35934484004974365,0.7484085559844971,-0.5730475783348083,-0.31695932149887085,0.14323271811008453,0.8465500473976135,-0.1911827176809311,-1.3430514335632324,-0.3870498836040497,0.45000988245010376,0.6623361110687256,1.8825558423995972,1.027553677558899,-2.5969150066375732,1.768136978149414,-0.632638156414032,-0.02771640196442604,0.6167729496955872,2.2150187492370605,-0.5800480842590332,-0.7708476185798645,1.0030457973480225,-0.2610210180282593,-0.10514581203460693,1.4233533143997192,1.136008381843567,-1.1087106466293335,1.9890923500061035,2.155644416809082,-2.116819143295288,-0.4787737727165222,0.7462002635002136,0.875262975692749,-0.3688708543777466,0.2883777618408203,0.1313418447971344,-0.752472996711731,0.0165689829736948,-0.9058948159217834,-1.9314546585083008,1.3871170282363892,0.1390712559223175,-1.091071367263794,-0.7004682421684265,-0.3800717890262604,0.991410493850708,0.9421452283859253,-2.2876715660095215,-0.5835525989532471,1.024465799331665,0.2208222895860672,-0.6653944253921509,0.9579176306724548,1.2150704860687256,1.272841453552246,-0.5791271924972534,-0.06601995974779129,-0.530548095703125,0.5232434272766113,-1.150815725326538,-1.2249600887298584,0.1758137047290802,-0.882927417755127,-1.7346796989440918,-0.8512035608291626,-0.5608803629875183,-0.5691324472427368,0.48830363154411316,1.513999104499817,-0.5897603034973145,-1.0160869359970093,-0.047585148364305496,-0.9451228976249695,0.8909910917282104,0.016526175662875175,0.38991183042526245,0.3134361505508423,0.011681826785206795,0.2228851616382599,0.21028535068035126,0.6857607364654541,-0.2089466005563736,1.0012092590332031,-0.8915257453918457,0.14988677203655243,-0.6284233927726746,-0.902457594871521,0.3954901397228241,0.6683422923088074,0.27018097043037415,-0.19240881502628326,0.2597401738166809,0.17582492530345917,0.24098004400730133,0.6436713933944702,0.9926645755767822,1.0973211526870728,-1.4428071975708008,1.1336206197738647,-0.0394616536796093,1.123739242553711,1.378198266029358,0.0914386734366417,-0.9667360186576843,0.9166447520256042,0.6462879180908203,1.5690772533416748,2.1254072189331055,-0.6295924186706543,1.0894534587860107,0.4392894506454468,-0.581720769405365,-0.10128296911716461,0.18677975237369537,0.10789762437343597,1.3023626804351807,-1.4991719722747803,-0.13673114776611328,-1.4589027166366577,-0.1463826447725296,-0.4342099726200104,0.02433761954307556,-0.8877456784248352,-0.4137495756149292,0.22948957979679108,-0.7959668636322021,-0.6399586200714111,-1.7089911699295044,0.13353411853313446,1.1515512466430664,-0.3536885976791382,1.090233564376831,-0.39233729243278503,-0.9043909907341003,0.3702584505081177,0.13075704872608185,-1.8704109191894531,-0.6026350855827332,-1.5828605890274048,0.6051719188690186,-0.9791933298110962,0.4637499153614044,-0.3136669993400574,-1.1884961128234863,-1.2843563556671143,-0.6966566443443298,-0.5292231440544128,-0.4718121886253357,0.08979940414428711,0.1291470229625702,-0.8751718401908875,-0.691726565361023,-2.319432020187378,-0.20983529090881348,1.2947533130645752,0.1339797079563141,-0.40980270504951477,-0.7361418008804321,-0.5394264459609985,-0.7303315997123718,0.8542609214782715,0.9179491996765137,0.4712752103805542,0.2232132852077484,1.9569098949432373,-0.22090023756027222,0.4192783236503601,-1.8702737092971802,0.3979188799858093,-1.365005373954773,-0.2834530472755432,-0.3672470152378082,1.8379220962524414,-0.4349665343761444,1.0896124839782715,0.3857884407043457,-0.7030727863311768,1.4453297853469849,-0.722390353679657,0.7459352612495422,-0.8402960896492004,-1.3871777057647705,0.30740419030189514,0.7240903973579407,-1.1968687772750854,1.1195012331008911,1.0736382007598877,-0.43647924065589905,-0.8117227554321289,0.34071749448776245,-0.4643014669418335,1.6094422340393066,-1.1856746673583984,-1.488299012184143,0.9973400831222534,1.0820165872573853,0.9538395404815674,-0.48417767882347107,0.23194696009159088,-0.25777000188827515,-0.21426407992839813,0.9074270129203796,0.8197275996208191,0.6996926665306091,-0.34839171171188354,2.0087478160858154,-0.9428509473800659,0.6137359738349915,-0.36994680762290955,0.691571056842804,-0.12475906312465668,0.8527340888977051,-0.8576345443725586,-0.04830342158675194,1.0237773656845093,-0.24204599857330322,1.5369162559509277,0.1492137908935547,-0.5355008840560913,0.6444146037101746,0.4551137685775757,1.0413161516189575,-0.011835251934826374,0.020079318434000015,1.8877253532409668,-0.636792778968811,0.08841560781002045,1.9606642723083496,-0.2650844156742096,0.3880991041660309,-0.5431358814239502,-0.6635131239891052,1.2703973054885864,-0.585334300994873,0.8711844682693481,-0.2244703322649002,-1.5098059177398682,1.0161148309707642,-1.115984559059143,0.5886049270629883,0.11429709196090698,-0.01887240633368492,0.8384662866592407,-1.4518764019012451,-0.1423945128917694,-0.4778794050216675,2.690155267715454,-1.0688046216964722,-0.5594642758369446,-0.1402917206287384,-0.855253279209137,2.814836263656616,0.8004012107849121,1.6327909231185913,0.6203316450119019,-0.26394179463386536,-1.859846591949463,0.6626202464103699,-0.5575302839279175,-1.7986130714416504,-1.9875609874725342,-0.7314018607139587,-0.37317100167274475,0.35327911376953125,1.013806939125061,0.5712015628814697,0.12110807001590729,0.40653249621391296,1.6549917459487915,0.6244699954986572,-0.07526423037052155,0.7303162217140198,0.35595065355300903,-0.5069174766540527,-0.972667932510376,0.22764500975608826,-0.915378212928772,-2.3871896266937256,-2.0588419437408447,-1.7304387092590332,0.25770166516304016,0.07829608023166656,-0.4779219627380371,-0.700506329536438,-1.3718112707138062,0.7510108351707458,-1.2732402086257935,-1.5027657747268677,-0.6874598860740662,-1.3105319738388062,0.690359354019165,-1.2186779975891113,0.8332322239875793,-0.5567071437835693,0.7232736945152283,0.40467557311058044,-0.8169482350349426,-0.47230544686317444,-2.1437816619873047,-1.0805109739303589,-1.8341530561447144,-0.09298594295978546,-2.053713321685791,-0.2520790696144104,-2.4392895698547363,-3.5548598766326904,-2.082540988922119,-1.8407692909240723,0.4055383503437042,-1.2679197788238525,-0.8822419047355652,0.4055575728416443,0.0453001968562603,-1.8148523569107056,-0.8439251780509949,0.8883460760116577,-0.7574562430381775,-1.4184876680374146,0.8275205492973328,-0.8763587474822998,-0.5563154220581055,0.5363075137138367,1.1965912580490112,0.028207218274474144,-0.2694550156593323,-1.551024079322815,-2.211513042449951,-1.1740901470184326,-1.2560151815414429,0.4855593144893646,-2.5859618186950684,-2.349529981613159,-2.0972282886505127,-0.806109607219696,0.4612337648868561,-0.3520166277885437,-1.381240725517273,-0.6796990036964417,0.8317118287086487,0.3071122169494629,0.2225109338760376,0.28822916746139526,-0.7679577469825745,0.3371283710002899,-0.2066013664007187,-0.6238488554954529,0.7331119179725647,-0.1590561419725418,-1.093705177307129,0.6361214518547058,-0.7446774244308472,-1.9614027738571167,0.7631025910377502,-0.3001253604888916,-2.162790298461914,-2.60066819190979,-1.5817357301712036,-2.152792453765869,-1.8365159034729004,-0.1141282320022583,-2.0029072761535645,-0.21610508859157562,-0.47293969988822937,-1.586074948310852,0.19339509308338165,0.8332237601280212,0.1841394156217575,-0.2601359486579895,0.543874979019165,-0.5238816142082214,1.124230980873108,-0.27128931879997253,-0.8676358461380005,-0.5173788070678711,0.04878610372543335,0.8691996932029724,1.2598494291305542,1.1808438301086426,0.205807626247406,0.3148937523365021,-0.010839871130883694,-0.5656632781028748,1.0718986988067627,-0.3287925124168396,-0.636378288269043,-2.146946668624878,-0.2765684425830841,-0.3031868636608124,0.23590576648712158,-1.3803726434707642,2.479755163192749,0.13134312629699707,-0.6637624502182007,0.20632806420326233,0.8289487361907959,0.818791925907135,-0.10724371671676636,-0.0015150043182075024,0.7758325934410095,0.4085283577442169,2.0044400691986084,1.1112972497940063,-1.8054566383361816,1.3695242404937744,-1.060323715209961,-1.399021029472351,1.0771832466125488,-1.1826307773590088,-2.3419268131256104,0.040525056421756744,-2.1054632663726807,-0.21410426497459412,-1.0817627906799316,-2.300868511199951,-0.48484617471694946,-0.24340686202049255,0.7455649375915527,0.303164005279541,-0.713043749332428,0.5736062526702881,1.1363471746444702,0.2542702555656433,-0.31122925877571106,-1.6830099821090698,-1.8954603672027588,1.1961400508880615,0.8415600657463074,-0.09439698606729507,1.20539128780365,0.3360232710838318,1.9326845407485962,-0.2894956171512604,1.1767929792404175,-0.027778007090091705,-1.427468180656433,-0.4183233380317688,-0.4126227796077728,-0.44775334000587463,-0.6499187350273132,0.5469422936439514,1.8168787956237793,-0.6185604929924011,1.2446516752243042,0.09463765472173691,0.48244205117225647,1.042816400527954,-0.37819328904151917,0.11402998864650726,1.2231732606887817,0.18592476844787598,-0.10260562598705292,0.6601439118385315,-2.3665683269500732,1.2780824899673462,1.3880294561386108,-0.0006828035111539066,0.41288256645202637,-0.35980314016342163,0.015041155740618706,-0.6989426016807556,-1.2466164827346802,0.10577455163002014,-0.7173926830291748,0.6775731444358826,-0.8345474600791931,-0.8545970320701599,0.5903600454330444,-1.0239311456680298,1.2907606363296509,-1.3146185874938965,1.0263255834579468,-0.0736672431230545,0.2802059054374695,0.17368362843990326,2.4364540576934814,1.7460449934005737,-0.3029876947402954,-1.4369884729385376,-0.4682987928390503,-0.3208373486995697,0.09407788515090942,0.5236011147499084,-1.1604397296905518,0.864179253578186,0.32139673829078674,0.5374740958213806,0.14338533580303192,-0.12552142143249512,1.4211968183517456,-0.018694380298256874,-1.3474273681640625,0.45973920822143555,-1.7840019464492798,0.23868171870708466,1.0327799320220947,0.34969669580459595,0.06723681092262268,1.1021802425384521,1.889176607131958,1.4507558345794678,2.1338508129119873,-0.6221449375152588,0.2108476758003235,1.6291917562484741,1.1234041452407837,-0.22260276973247528,0.6981230974197388,-1.3955249786376953,-1.039466381072998,-0.9951716661453247,1.4174144268035889,0.534936785697937,1.1990610361099243,0.32677727937698364,0.6148238182067871,0.34521037340164185,0.5984172224998474,-1.2058202028274536,0.33367931842803955,-2.2513060569763184,-1.8632549047470093,1.736458420753479,-1.2429747581481934,0.48372966051101685,1.7071802616119385,0.07206536084413528,0.671062171459198,1.1262015104293823,0.5107414126396179,1.3670018911361694,1.3467551469802856,-0.49831345677375793,0.7148679494857788,-0.5139077305793762,-0.5797953605651855,1.2692509889602661,0.9502280950546265,-1.376878261566162,-0.2753411829471588,0.4749599099159241,0.8443270325660706,-0.17625229060649872,0.4471011161804199,-0.29380151629447937,0.8441371321678162,-0.3676462471485138,-0.14234237372875214,0.18198725581169128,0.8213948011398315,-0.776249885559082,1.4759808778762817,0.6893540024757385,-0.5610936284065247,-1.4419037103652954,-0.382725328207016,0.08738890290260315,0.27222496271133423,-0.4425572156906128,-1.153752326965332,-0.19608142971992493,0.21843288838863373,-0.4331374168395996,-0.21476686000823975,-0.15776623785495758,0.4713776111602783,0.7989955544471741,-0.04584242403507233,1.441667079925537,-0.9755675792694092,-0.7933308482170105,0.6572883129119873,0.8819320201873779,0.1573713719844818,2.04512882232666,0.34390708804130554,-0.1702617108821869,1.722694754600525,-1.0677913427352905,0.6746484041213989,-0.7078297734260559,0.4594523012638092,-1.5453442335128784,1.103376865386963,-0.06120383366942406,-0.910732626914978,-0.3087463974952698,-0.08432541787624359,0.5152022838592529,-1.361360788345337,-0.14102549850940704,-1.594585657119751,1.1164849996566772,-0.45513176918029785,-1.0435072183609009,-0.0548214465379715,0.08528468757867813,0.5025362372398376,0.14954522252082825,-0.6264483332633972,0.6995276212692261,-0.23810146749019623,-0.3908924460411072,-2.024951219558716,1.1676589250564575,0.12109175324440002,-2.0424304008483887,0.5444024205207825,-0.40683475136756897,0.1618487685918808,0.7749242186546326,-0.07330004125833511,-1.098074197769165,0.6847948431968689,-1.087250828742981,0.12207580357789993,0.9754346609115601,0.6430819034576416,0.1959674209356308,0.08427257835865021,-1.8179378509521484,0.7058611512184143,0.17692120373249054,-1.2371015548706055,0.2935132682323456,0.47922879457473755,0.30071279406547546,-0.3359563946723938,1.4177308082580566,-0.24694138765335083,-1.5761724710464478,-0.1800578385591507,-0.4456928074359894,0.21523430943489075,-0.14164453744888306,1.738830327987671,-0.7863475680351257,0.18210211396217346,-0.19639140367507935,-1.9480843544006348,0.7335949540138245,-0.4875465929508209,-1.6313306093215942,0.6079035997390747,-1.5717579126358032,0.7549336552619934,-1.5307106971740723,1.3487496376037598,0.5138616561889648,-2.269850492477417,-0.4562890827655792,-0.8300077319145203,1.3922444581985474,-0.8974316120147705,-0.2948952913284302,-1.747654914855957,-0.6788777709007263,1.9568909406661987,-0.8443478345870972,-1.1517436504364014,-1.9995450973510742,-0.07502398639917374,-2.4003853797912598,-0.23076127469539642,-0.056282855570316315,0.7445023655891418,1.1489862203598022,-0.47770726680755615,1.351523518562317,2.071298122406006,0.08715658634901047,-0.7071924805641174,0.12801064550876617,0.8517894744873047,1.0093005895614624,-1.0060197114944458,0.4706094264984131,0.5473818778991699,-0.4412273168563843,1.6899768114089966,0.6503332257270813,-0.28716397285461426,-0.3364480137825012,-0.6419882774353027,0.664864718914032,0.3075096011161804,0.16475287079811096,-0.616102933883667,-1.6451882123947144,-0.0569528304040432,-1.9456148147583008,0.2693510949611664,0.10441289097070694,0.5590858459472656,-0.38457703590393066,-0.3615835905075073,0.05045909807085991,1.0527490377426147,-0.19108855724334717,-0.7217893004417419,1.5857739448547363,-0.6288137435913086,-0.867083728313446,-0.10094732791185379,0.7631705403327942,0.6606979370117188,-0.5612026453018188,-1.4674592018127441,-0.5826563835144043,1.1838157176971436,0.5930874943733215,0.06120354309678078,-0.9533686637878418,0.8823629021644592,1.0190802812576294,0.09569276869297028,-0.30359968543052673,-0.22964684665203094,-1.804024577140808,-0.03767267242074013,1.0491082668304443,0.2853820025920868,-0.39870133996009827,1.164309024810791,0.846964955329895,1.0575308799743652,0.5092772841453552,1.6980215311050415,1.3734880685806274,0.3679060935974121,-1.1126865148544312,-0.30732738971710205,0.5753459334373474,-1.0861823558807373,-0.6686427593231201,-0.6888478398323059,-0.616233766078949,-1.5958688259124756,-0.19782201945781708,0.47649672627449036,-0.8950217962265015,-0.49683505296707153],[0.07817057520151138,-0.08608540892601013,-0.9767122268676758,-0.11175766587257385,-0.8071573972702026,0.9212974309921265,-0.31169718503952026,-0.3529796004295349,0.14683380722999573,0.09125698357820511,-1.6527678966522217,-2.153848886489868,0.9243052005767822,0.17680589854717255,0.7168234586715698,-1.130016565322876,-0.47419923543930054,-0.3610096871852875,0.5374510884284973,0.00013040794874541461,1.3718550205230713,-1.8323826789855957,-0.6319085955619812,0.8300358057022095,-0.16774792969226837,-0.40888065099716187,0.7898709774017334,0.8075574636459351,-1.327553391456604,-1.0676891803741455,-0.6428071856498718,1.2200028896331787,0.07815727591514587,0.05557054281234741,0.9155821204185486,-1.1108195781707764,-1.6328784227371216,-1.2935348749160767,0.11249944567680359,-0.2709044814109802,0.8228234052658081,-0.3527850806713104,-0.5956223011016846,0.48420053720474243,-0.49302974343299866,-0.3171498477458954,-0.1357881873846054,-0.6410436034202576,0.3219752013683319,0.77656090259552,0.039616093039512634,-0.183035209774971,-0.5693160891532898,0.8720311522483826,0.18272101879119873,-1.2441641092300415,-0.4776448607444763,-0.32274410128593445,-0.0907551646232605,-1.1933403015136719,0.8378057479858398,-1.0240962505340576,0.6828795671463013,-1.1913888454437256,-1.3075933456420898,-1.0299339294433594,0.7770224809646606,-1.6371852159500122,1.0975797176361084,-0.010788597166538239,-0.27449920773506165,-1.0907483100891113,-1.2308940887451172,0.20076292753219604,-0.6096965074539185,1.3228076696395874,1.6326626539230347,0.012560221366584301,-1.8114495277404785,-0.19379490613937378,0.5010068416595459,-0.23235012590885162,-0.05752440541982651,-0.7430975437164307,-2.43315052986145,-0.7469145059585571,2.3363559246063232,0.13704964518547058,0.3357177674770355,1.1225072145462036,0.6131946444511414,0.36409589648246765,-0.1390104591846466,-0.8005906939506531,-1.601412057876587,-1.2627676725387573,0.015300525352358818,1.6846100091934204,-0.1572694182395935,-0.2518107295036316,2.127326488494873,1.1523782014846802,0.5485754609107971,0.24430988729000092,1.7539546489715576,1.7297273874282837,0.5518049001693726,0.5099084377288818,0.4568098485469818,-0.17803405225276947,-0.5171601176261902,0.026215706020593643,0.00686997827142477,2.0487420558929443,2.1482787132263184,-0.0774177610874176,-2.830106496810913,0.04225524514913559,0.5045026540756226,-0.6862038969993591,0.4709160327911377,0.4114336371421814,1.0643970966339111,-0.845139741897583,0.9841817617416382,-0.19653044641017914,0.5650756359100342,-1.4104316234588623,-0.8472240567207336,1.3658432960510254,-0.31957167387008667,0.912381112575531,-0.9973084330558777,1.3104134798049927,0.3480064570903778,-0.45182004570961,-0.8519079685211182,0.13456092774868011,-0.17509418725967407,-1.0327610969543457,-0.3813295364379883,-0.05895502492785454,-0.8503053188323975,-0.39677315950393677,-0.1243349015712738,1.0400279760360718,0.07930579036474228,1.2172069549560547,0.2083669751882553,-0.07008153945207596,0.8032041192054749,0.6031398177146912,0.20955251157283783,1.9166327714920044,-0.9337973594665527,0.12487401068210602,-0.7817177176475525,-0.5556894540786743,-0.9658399820327759,0.9236636161804199,0.16843698918819427,0.13617119193077087,-1.122900366783142,-0.0677078515291214,0.3550795316696167,0.243275985121727,-0.5881369113922119,-1.0696386098861694,0.7204313278198242,-0.2341010570526123,1.2810028791427612,-1.4637730121612549,-1.4830167293548584,-0.4601474702358246,0.7643201947212219,-0.46684762835502625,-0.29318109154701233,1.0839722156524658,-0.9941751956939697,0.3171125650405884,-0.8305037021636963,-0.5077664256095886,-0.12710240483283997,0.1704227477312088,0.4664285182952881,-1.3419088125228882,-0.9869556427001953,-0.13022425770759583,-0.432342529296875,0.5935840010643005,-0.5765488743782043,0.21262311935424805,1.0621223449707031,1.704430103302002,0.8758643269538879,-0.6701356172561646,-1.4072363376617432,2.009002923965454,1.4630894660949707,-1.2565460205078125,-0.5441031455993652,-0.3266012668609619,-2.1938085556030273,0.9292808175086975,0.54205322265625,0.0645957812666893,-1.6774537563323975,0.7715861201286316,0.04825104773044586,-0.1305694431066513,1.0825952291488647,-0.69548100233078,-1.115121841430664,1.488844394683838,-0.611090898513794,0.04825166240334511,0.43971994519233704,0.9523345232009888,-0.11373810470104218,1.3299930095672607,0.619265079498291,-0.015041776932775974,0.37303221225738525,0.5331984162330627,-0.32014209032058716,1.9714763164520264,-0.26206815242767334,0.6783477663993835,0.7238253951072693,0.10866048187017441,-0.8610802292823792,0.26530951261520386,-0.05445082485675812,-0.7957857251167297,-0.47729119658470154,-1.5786465406417847,-1.2288844585418701,-0.23292125761508942,-0.011290628463029861,0.12621700763702393,-0.5095959901809692,0.4736655652523041,-2.0326778888702393,-0.45713165402412415,0.876801609992981,-0.5301010608673096,0.0695895403623581,-0.11117679625749588,2.284207582473755,0.6148074865341187,-0.25013911724090576,-0.4136727750301361,-0.20284956693649292,0.6676778197288513,-0.43650951981544495,-2.1658382415771484,0.7852061986923218,-1.1828688383102417,-0.8921661972999573,0.15452443063259125,-1.3495697975158691,0.3777347505092621,-0.708374559879303,-0.06425119936466217,-2.0952374935150146,-2.255049467086792,0.33089739084243774,-1.0335842370986938,0.019875625148415565,-0.06960643827915192,1.1769651174545288,-1.0264112949371338,1.4153393507003784,1.1329478025436401,-1.9468717575073242,1.5274912118911743,1.104372262954712,2.445344924926758,0.3934101164340973,0.7603577375411987,-0.07437501102685928,1.6836241483688354,0.9903562068939209,2.167945623397827,1.2925829887390137,0.7963659763336182,-0.5692530274391174,1.411163330078125,-1.2817431688308716,0.44260287284851074,0.305571973323822,0.48351365327835083,-0.659255862236023,-2.300248146057129,0.2841302156448364,-0.5651559829711914,1.7259149551391602,-0.7683988213539124,-2.6108388900756836,-0.8214498162269592,-1.3153223991394043,-1.5615136623382568,-0.5311158895492554,-0.2560398280620575,0.3843623697757721,0.13469025492668152,2.2430810928344727,0.7952791452407837,0.9641697406768799,-0.40310078859329224,-0.16489650309085846,1.2587852478027344,-2.0726351737976074,-0.3339000642299652,0.5514504313468933,0.731313943862915,-0.30997827649116516,1.8100576400756836,0.22242994606494904,0.5072197318077087,-0.13633809983730316,-0.9690327644348145,0.09523612260818481,0.8200504183769226,0.20786729454994202,1.2566999197006226,-0.3068050146102905,-1.0408109426498413,-1.6046215295791626,-0.070545993745327,-0.772976815700531,-0.8910829424858093,-0.4133032560348511,0.7147815227508545,-0.05347711220383644,0.9211344718933105,1.2448481321334839,-0.29404717683792114,1.9493180513381958,-0.1468905359506607,-0.23790638148784637,-0.07443764060735703,-0.16072896122932434,1.33868408203125,1.3061004877090454,0.06325317919254303,0.3380843698978424,2.5787487030029297,0.10800538212060928,0.7736635804176331,-0.06431958079338074,1.6880940198898315,0.0037698973901569843,0.6950470209121704,-1.3136478662490845,-1.7674793004989624,-0.23173558712005615,-0.33043423295021057,-2.969280242919922,-1.6137804985046387,-0.40546882152557373,0.22407737374305725,-0.8301312327384949,0.571378767490387,-0.9440540671348572,-2.1059038639068604,0.32160842418670654,0.7809059023857117,0.35571756958961487,1.6377466917037964,-0.45419996976852417,0.1096561998128891,0.13544820249080658,0.6473002433776855,0.3303576707839966,0.28613799810409546,0.41810381412506104,2.171279191970825,0.11870291829109192,1.5905765295028687,-1.5374935865402222,0.24656431376934052,0.2216191589832306,0.19956639409065247,0.8905747532844543,-2.1005818843841553,-1.167299747467041,-0.4185955226421356,-2.0675833225250244,-1.471629023551941,0.9220764636993408,-0.5624033212661743,-0.9083220958709717,0.40818238258361816,0.6732557415962219,0.6754236817359924,-0.5723117589950562,-1.4329042434692383,0.4491623342037201,-1.0553268194198608,0.02588016167283058,-0.3754025995731354,0.006401732098311186,0.330850213766098,0.022438764572143555,0.180525541305542,0.047247614711523056,0.3738687038421631,0.5673677325248718,0.41521239280700684,0.6620336771011353,0.9801508784294128,-0.685961127281189,-0.7756085991859436,-0.8961058855056763,-1.6674238443374634,-0.04158356413245201,-1.387404203414917,0.2067495882511139,-0.8365921378135681,-0.8568586111068726,0.16587892174720764,-0.8238219618797302,-0.24566908180713654,1.7118510007858276,-2.118671178817749,-1.007135272026062,-0.13373571634292603,-0.26409250497817993,0.4466469883918762,0.1955835521221161,-0.7617796659469604,0.13135479390621185,1.2155687808990479,2.275290012359619,0.21336324512958527,1.0182267427444458,0.22670653462409973,0.6252765655517578,0.30304601788520813,-0.3713897168636322,-1.6493628025054932,-2.4378459453582764,1.045177936553955,-0.205587700009346,0.11591492593288422,-1.4029524326324463,0.5611032247543335,0.30493712425231934,-0.27773359417915344,0.22308918833732605,-2.062795877456665,-0.5281099081039429,-0.4314393401145935,-0.8711814284324646,-1.1004717350006104,1.3095277547836304,-1.0766005516052246,-0.1252214014530182,0.16122674942016602,-0.551490843296051,1.3296446800231934,-0.05775807797908783,0.5836835503578186,-0.29713550209999084,-0.08984833210706711,0.9118242859840393,0.8143125176429749,0.7392898797988892,0.20422883331775665,3.133943557739258,-0.8358941674232483,-0.290812224149704,0.3280573785305023,-0.024300651624798775,-1.4396824836730957,0.2938251495361328,1.2742607593536377,1.316657543182373,0.2560696303844452,-0.06186162307858467,-0.9320311546325684,-0.1957322657108307,-0.24819020926952362,-0.3942955732345581,-1.65391206741333,-1.8193081617355347,-0.31521740555763245,-0.0468628816306591,0.6053310036659241,1.0337090492248535,0.17528218030929565,0.16616156697273254,0.688940703868866,-0.7461307644844055,2.4315571784973145,-0.6577838063240051,1.2223905324935913,-0.576555609703064,0.13496515154838562,1.1814193725585938,0.7911608219146729,-0.38949087262153625,0.777894914150238,0.3279251754283905,2.2056519985198975,1.116534948348999,1.1099932193756104,0.4743974804878235,1.434937596321106,-0.16424532234668732,0.7042418122291565,-0.1270119696855545,-1.5193569660186768,-2.832188844680786,-1.5875414609909058,1.179835557937622,0.44591957330703735,0.8331819176673889,-1.8629626035690308,0.2376018464565277,0.4599526822566986,-0.5837222933769226,0.6937746405601501,-0.1375402957201004,-0.5982059836387634,1.842482566833496,-1.2850492000579834,-0.9484285116195679,-0.11359895765781403,-0.9216482043266296,-0.3655565083026886,-0.368399977684021,-0.05446535348892212,-1.3606678247451782,0.8402513861656189,0.9621264338493347,-0.742274820804596,0.3302077054977417,-0.37406042218208313,0.17650632560253143,-1.908948302268982,0.7858325839042664,-0.49665752053260803,0.628650963306427,-0.026853563264012337,1.4976547956466675,-0.5663949847221375,0.2375054806470871,0.35939639806747437,-0.36415037512779236,1.1813327074050903,0.15360675752162933,-0.6669912338256836,1.399497628211975,-0.4397786259651184,2.034627676010132,-0.6169167160987854,-0.8881374001502991,0.8226118087768555,-0.911220133304596,-0.6630775928497314,0.29618021845817566,0.4370615482330322,3.181077241897583,-0.22619768977165222,-1.0698364973068237,1.2186462879180908,0.3771235942840576,-0.28048864006996155,-1.0018310546875,-0.7901047468185425,1.8059921264648438,-0.19698426127433777,1.0683435201644897,0.17734022438526154,0.5520078539848328,2.0037405490875244,0.5380711555480957,2.706284284591675,0.8247407078742981,1.116026759147644,-0.4334697723388672,2.5544018745422363,0.04269002005457878,1.2633588314056396,1.0267866849899292,0.3643040955066681,-0.36472287774086,0.7200508117675781,1.2605844736099243,-0.3611639440059662,-0.9706918001174927,-0.34305340051651,0.2674843668937683,0.18970492482185364,-0.22650013864040375,0.5103551745414734,-0.5408300161361694,-0.8131751418113708,0.3616843819618225,0.3558579385280609,1.0028516054153442,0.2474132478237152,1.3313580751419067,1.0377355813980103,1.0346081256866455,1.4306669235229492,0.8835039734840393,-0.995772659778595,1.6179050207138062,-1.3475092649459839,-2.2431066036224365,0.6631013751029968,-0.3631664216518402,-0.6153971552848816,-1.7821118831634521,0.2530459463596344,1.3716495037078857,-0.5972109436988831,1.059863805770874,0.22079072892665863,-1.6897757053375244,0.9427939653396606,-0.14511190354824066,0.34983518719673157,-1.166425347328186,-0.2980186343193054,-1.3936197757720947,0.16635002195835114,0.45671388506889343,-0.6198582053184509,0.4019242227077484,-0.1497279405593872,0.9038587808609009,1.5160231590270996,1.0509626865386963,-0.6271101832389832,0.4102407693862915,1.4933077096939087,-0.42384445667266846,-1.2112557888031006,-1.650286078453064,0.6189441084861755,-1.2468860149383545,-1.1722491979599,0.7137740254402161,0.34718450903892517,-0.6034614443778992,-0.4147946238517761,1.6081361770629883,-0.9942861199378967,1.411489725112915,-1.508974313735962,1.0875760316848755,-1.1834955215454102,-0.15692238509655,0.0269814170897007,1.2777748107910156,-0.1722438633441925,1.9018090963363647,-1.2453745603561401,0.8242966532707214,-0.3747403919696808,2.563774824142456,1.1841256618499756,-0.3359847962856293,0.3192827105522156,-1.2955379486083984,0.9739014506340027,-0.5917519927024841,-0.4726898968219757,-0.5923205018043518,0.26611819863319397,-0.8022271394729614,-0.7944392561912537,-0.3710220158100128,0.9064101576805115,-0.6605145335197449,2.074915885925293,-1.1060056686401367,-0.14216142892837524,0.9894925355911255,0.38223937153816223,-0.7782110571861267,-0.2332785278558731,-1.3537334203720093,-0.7226724624633789,0.06068551167845726,0.4080367684364319,0.027043700218200684,-0.831491231918335,-1.3168909549713135,1.77858304977417,-0.6523105502128601,-0.40305933356285095,-1.3574825525283813,0.5443835258483887,-1.3379312753677368,1.3802566528320312,0.26158973574638367,-0.12353451550006866,1.2216023206710815,0.9042023420333862,1.289147973060608,-0.21502088010311127,-2.6289360523223877,-0.0943775549530983,1.1203043460845947,0.27069568634033203,-0.832237184047699,-2.14786434173584,0.03025796078145504,-0.8177191615104675,-0.997435986995697,0.009492847137153149,-1.2711687088012695,-0.5652347803115845,0.05064576864242554,1.1227664947509766,-0.5933783054351807,0.40588343143463135,-1.2342795133590698,1.585210919380188,0.3763405680656433,-1.5993766784667969,-0.653680682182312,0.31472232937812805,0.05941305309534073,0.3052256405353546,1.5296523571014404,-0.014270175248384476,-2.6276495456695557,-0.7040102481842041,0.6277029514312744,1.2342334985733032,2.417726755142212,-0.2524046301841736,3.1901659965515137,-0.18561533093452454,0.45803576707839966,-0.3003515601158142,-0.21666304767131805,-2.061499834060669,0.03732161596417427,-1.1108461618423462,-1.555701732635498,-1.0435198545455933,-0.5841218829154968,0.45892688632011414,-0.9927970170974731,0.9528149366378784,-1.3287930488586426,-0.4124372899532318,0.4109591245651245,-0.8919644355773926,-0.8837330937385559,-1.7329446077346802,-0.28456172347068787,1.3331687450408936,-2.097181797027588,2.368191719055176,-0.11339934170246124,-0.4129556119441986,-0.6411166787147522,1.2584753036499023,-0.384779691696167,2.025843858718872,-1.7003962993621826,0.7528481483459473,0.7579821348190308,-0.7155015468597412,-1.3062502145767212,-1.0316944122314453,-0.6093921065330505,1.0478471517562866,-1.234438419342041,0.2735615074634552,-0.024897683411836624,-1.7377954721450806,-0.43697622418403625,-1.056657314300537,0.5708942413330078,-1.129141926765442],[-0.5562822222709656,1.4889732599258423,1.1173917055130005,0.5046335458755493,0.17213042080402374,1.1760550737380981,-0.054386675357818604,0.8150531053543091,-0.8986091017723083,0.13666436076164246,1.349529504776001,0.010520588606595993,-0.1387173980474472,-0.2088790237903595,1.5609632730484009,-0.601106584072113,1.063532829284668,0.023697974160313606,-0.3522047698497772,0.9964500069618225,-0.6727280616760254,-0.29529061913490295,0.5021387338638306,0.5408715009689331,-0.5336394309997559,-0.06763070076704025,-0.43666014075279236,-0.45636796951293945,0.5110083818435669,0.3593151867389679,1.9179726839065552,0.34691011905670166,-1.7002766132354736,-0.7609124779701233,0.08724617958068848,-0.25837448239326477,-1.2279738187789917,-0.4595679044723511,0.3880898058414459,0.9494529962539673,0.625082790851593,0.1880970597267151,-0.89704829454422,0.9625722169876099,0.8288522362709045,-0.46140286326408386,1.6427809000015259,1.571663498878479,-0.5510118007659912,0.8161242604255676,-2.018174171447754,0.4913541078567505,-1.4822946786880493,-0.21872882544994354,2.285865306854248,0.22625292837619781,-0.7941981554031372,1.7506697177886963,-1.4937074184417725,1.1589829921722412,0.5097059011459351,1.5469722747802734,-0.7437916994094849,-0.05480540171265602,0.6681637763977051,0.514925479888916,-1.1548019647598267,0.9240449666976929,-0.9035221338272095,-0.3000219166278839,-1.9524729251861572,-3.3112871646881104,-0.7857353687286377,0.20741412043571472,-0.2342393398284912,-0.05965122953057289,-0.0576724112033844,-0.8861847519874573,-2.3481802940368652,0.41481807827949524,-0.2595907747745514,0.7473869919776917,-1.7237056493759155,1.0595685243606567,0.33963868021965027,-0.819566011428833,0.3415984809398651,-1.5541433095932007,0.9699392914772034,-0.9767321944236755,-0.029684504494071007,0.23416739702224731,-0.7293451428413391,0.11892617493867874,1.3406394720077515,0.036116763949394226,-0.04697969928383827,-0.8980640172958374,-2.5661702156066895,-0.9979891180992126,0.7724472880363464,0.2842298448085785,-1.6054325103759766,2.9729256629943848,-0.342250794172287,-0.23404768109321594,0.11484649032354355,0.7759069800376892,0.4469938278198242,-1.3754839897155762,-0.5419676303863525,-0.3894498944282532,-0.10500647127628326,0.9926190376281738,-2.0405774116516113,0.8325701951980591,0.4592950940132141,-0.6448134779930115,-2.306161403656006,0.16440165042877197,0.15218207240104675,0.6192453503608704,0.29896849393844604,1.712274432182312,-0.5421887636184692,0.7656304836273193,-0.1404990404844284,1.1262269020080566,-0.2335502803325653,0.38232776522636414,-1.4313074350357056,0.33600354194641113,1.0053513050079346,-1.145492434501648,-0.017119595780968666,2.3619954586029053,-0.5874850749969482,0.24060934782028198,0.26723602414131165,1.9087512493133545,0.9149739742279053,1.4247044324874878,-0.6647049188613892,-0.955238938331604,0.5197837352752686,1.5671147108078003,1.0087157487869263,-1.242809534072876,-0.39061230421066284,1.7332350015640259,2.4609525203704834,-1.133548378944397,0.8603766560554504,0.5743677616119385,0.3491384983062744,0.892179548740387,1.460792064666748,1.0656498670578003,0.5304699540138245,0.024976545944809914,-0.008983428589999676,0.48317915201187134,-0.19766196608543396,-1.0974725484848022,1.12391996383667,0.3541865944862366,-0.023034662008285522,-0.26362350583076477,-0.46660569310188293,1.0267301797866821,0.27314767241477966,0.43361809849739075,0.8575412034988403,0.046758830547332764,1.139763355255127,2.1991360187530518,1.9904417991638184,-1.4991270303726196,1.9695852994918823,1.0874671936035156,0.522911012172699,-1.320804238319397,-0.8994868397712708,-1.1929937601089478,0.2620871067047119,-1.1096422672271729,0.9501456618309021,0.6326799988746643,1.702981948852539,-0.3536948263645172,2.271188497543335,2.5653531551361084,0.39817753434181213,-2.9005253314971924,-1.1534439325332642,-2.0474047660827637,0.17239826917648315,0.6369738578796387,0.015508322045207024,1.252028465270996,1.163398265838623,1.1026132106781006,-0.41603052616119385,-1.533979058265686,-0.033848654478788376,-0.8780737519264221,-0.1080273762345314,0.32289788126945496,-1.9511371850967407,-1.0267030000686646,-1.62554931640625,-2.420755386352539,-0.6492939591407776,1.0293707847595215,0.6825123429298401,-0.7582651376724243,-0.7713853120803833,0.6261537671089172,0.14947566390037537,-1.0584310293197632,1.396536946296692,-0.12137444317340851,1.4646586179733276,1.6292617321014404,0.45313870906829834,-0.07035259902477264,1.7212703227996826,0.06918562203645706,-0.5532048940658569,0.3681926429271698,-0.6797400116920471,-1.4406861066818237,-0.32968753576278687,-0.4972960352897644,-0.251065194606781,-0.7168493866920471,-0.6729530692100525,-0.9942929744720459,-0.9069738388061523,-0.7605394124984741,-0.05478706583380699,0.23397298157215118,0.43483760952949524,0.41243553161621094,0.21590489149093628,-0.7648404836654663,1.77329421043396,-0.16443796455860138,2.6770708560943604,-0.2607729434967041,1.2811342477798462,0.6469797492027283,1.9350860118865967,-1.127007246017456,-2.422631025314331,-0.04156279191374779,-0.3687121868133545,1.3511970043182373,1.0287516117095947,-1.1994216442108154,-1.056755542755127,-1.4361683130264282,0.33152589201927185,-1.303046703338623,-1.0619251728057861,-1.2682886123657227,-2.17995285987854,-1.3157612085342407,-0.9939846992492676,-1.6672292947769165,-0.6111719608306885,-0.7649964094161987,-0.008889940567314625,-2.5219361782073975,-0.7480980753898621,-1.9792225360870361,-0.16251938045024872,0.2948218286037445,-1.536881685256958,-0.9136118292808533,0.3985869288444519,-0.4409793019294739,0.6736994385719299,-0.0017704134806990623,-0.805814266204834,-3.5705809593200684,-1.857777714729309,-1.0470412969589233,-0.9109107851982117,-1.2088470458984375,-1.3189082145690918,-1.2617957592010498,-0.6416329741477966,-0.7744836211204529,-0.12252888828516006,0.8677495121955872,1.2955968379974365,1.878091812133789,-0.7916703820228577,-2.660083293914795,-1.2378449440002441,0.33942684531211853,-1.024346947669983,2.7354140281677246,0.6830219626426697,0.22342638671398163,-0.3137403428554535,-1.0280617475509644,-0.39787858724594116,0.4590780735015869,0.0709415003657341,-1.1649491786956787,-0.8527979850769043,-0.808931827545166,-1.2706443071365356,-1.793096899986267,-0.118932344019413,0.0916016697883606,0.3728047311306,0.5509200692176819,-1.8507061004638672,0.1118745282292366,-0.9886772036552429,-0.9816667437553406,-0.5289539098739624,0.7800512313842773,0.42128506302833557,-0.39165347814559937,-0.2776830494403839,0.8449293375015259,0.01331161055713892,0.10510264337062836,0.260781466960907,1.798699140548706,-0.5933824181556702,-0.5389194488525391,-0.3403457999229431,-0.5199711322784424,-0.22346067428588867,0.4079597294330597,0.4115784168243408,-0.22553761303424835,-0.5935869812965393,-0.090298131108284,-0.337313711643219,0.3287312686443329,0.5421338677406311,-0.43588027358055115,1.2560325860977173,-0.2419983297586441,-1.933450698852539,0.23052984476089478,-0.232884019613266,-0.3942587971687317,0.5477176904678345,-0.3294192850589752,-0.9903496503829956,-0.39122557640075684,-0.3864201009273529,-0.8521609902381897,-0.5113265514373779,-0.27253347635269165,1.3618006706237793,0.708688497543335,-0.780888020992279,-1.4754056930541992,0.490747332572937,-0.02523553930222988,-0.6051938533782959,0.18108342587947845,0.34763044118881226,-0.6220560669898987,0.6417613625526428,-0.2277374416589737,-0.3280434012413025,2.194347620010376,0.5009146332740784,0.11499723792076111,-0.9565666317939758,0.06846550107002258,-0.3439134657382965,-0.7356137037277222,0.386311411857605,0.008700428530573845,1.0151044130325317,-0.3869227170944214,-0.6402409076690674,2.107706069946289,-1.4536525011062622,0.7743377685546875,-1.045568823814392,0.32841476798057556,-1.6468703746795654,-0.2571345269680023,-0.15233872830867767,3.4847097396850586,0.15351499617099762,0.38785019516944885,0.854037344455719,-1.3925176858901978,-0.5272246599197388,1.074102520942688,-0.10162481665611267,0.3919607698917389,1.2918277978897095,0.614635705947876,0.9374371767044067,-0.9460464715957642,0.8143168687820435,1.916968822479248,1.032104253768921,-0.15884315967559814,0.5730516314506531,-0.10644826292991638,-0.5645485520362854,0.5330277681350708,0.9651905298233032,0.5195891261100769,-0.8302797079086304,-2.196988821029663,-0.6098061203956604,0.08743135631084442,1.4344429969787598,0.6591595411300659,1.4839906692504883,0.7412152290344238,-0.28111985325813293,0.5571160912513733,0.6531104445457458,-0.8370243310928345,0.8121762275695801,-0.9211622476577759,2.252405881881714,1.1891355514526367,-0.029163530096411705,-0.5240170359611511,0.3908542990684509,-2.8539297580718994,0.09254519641399384,0.6385167241096497,0.15376926958560944,-1.2066032886505127,-0.09500828385353088,1.07862389087677,0.47144120931625366,-0.3340516984462738,1.57518470287323,-0.6808556318283081,-1.6170790195465088,-0.28056806325912476,0.47749966382980347,-0.3251020312309265,0.7513813376426697,-0.07228483259677887,0.13816048204898834,0.3239077627658844,0.7231298089027405,-0.6977412104606628,0.8059794306755066,0.4977571666240692,1.249140977859497,0.7985331416130066,2.3024203777313232,0.5462437272071838,1.111343264579773,1.0622442960739136,0.48126938939094543,0.3783065974712372,-0.24576587975025177,0.27874088287353516,1.0393075942993164,-0.8193498253822327,0.4405365586280823,-0.005923195276409388,0.23887033760547638,-1.468778133392334,0.008620711974799633,-0.48306939005851746,-0.2656065821647644,-0.4479113519191742,1.0532729625701904,0.13860101997852325,-0.4551595151424408,0.7977845072746277,0.6923012733459473,0.478921115398407,-0.2729705274105072,-0.7787944674491882,1.7483919858932495,1.5886242389678955,-0.6187776327133179,1.7242251634597778,1.6243256330490112,-0.9858742356300354,-0.10704481601715088,-0.43622052669525146,1.2490928173065186,0.1196085661649704,-1.7220255136489868,-0.37310555577278137,0.6173597574234009,0.21415555477142334,0.5519427061080933,0.48773035407066345,0.326165109872818,-2.1489222049713135,0.006722394842654467,0.096402607858181,1.3632714748382568,-0.4618709683418274,0.6452403664588928,-0.5825793147087097,0.7548385858535767,0.5618663430213928,0.5948185920715332,-1.703068494796753,-0.3382326364517212,-1.2951778173446655,0.26771628856658936,-0.45821046829223633,2.0158445835113525,-0.26706862449645996,0.25375258922576904,-0.26941561698913574,-1.3497741222381592,0.9541313648223877,0.7122778296470642,0.12687428295612335,0.14406687021255493,0.9020786881446838,-0.9376052021980286,-0.4466782212257385,-1.0460608005523682,1.009963035583496,-1.6455249786376953,0.7050980925559998,-0.4683528244495392,-1.1721221208572388,0.9340986013412476,-0.18777921795845032,-0.6348381638526917,0.31970325112342834,0.9170166850090027,0.106995590031147,-1.6142898797988892,-0.9529567956924438,0.39208483695983887,1.2634634971618652,0.7693435549736023,1.4810811281204224,0.8568032383918762,1.4077565670013428,-0.7799873352050781,1.1749032735824585,1.0895740985870361,2.613109827041626,-1.555476427078247,-1.6473853588104248,0.4736854135990143,0.8218172192573547,0.25837162137031555,-0.5260295271873474,0.6421476602554321,-0.23692457377910614,1.1775108575820923,-0.4314062297344208,0.2943969964981079,-0.1278257519006729,-0.9254732131958008,0.09997271001338959,-2.1439614295959473,-1.1476802825927734,0.3857143521308899,-1.6184418201446533,-0.5987906455993652,-0.9984445571899414,-0.5169409513473511,0.012862318195402622,0.2695707380771637,-0.3609347343444824,1.2742971181869507,2.3588707447052,-0.4349559545516968,0.3772807717323303,0.7912543416023254,-1.1735891103744507,-0.08107656985521317,-0.11039658635854721,-0.3909796178340912,-1.7889366149902344,-0.44578561186790466,0.19435913860797882,2.026069164276123,-0.6610129475593567,-0.31767088174819946,-1.2417798042297363,-0.29614102840423584,-0.5297014117240906,0.12859304249286652,0.037766121327877045,0.3334678113460541,-1.0209380388259888,-0.7223324775695801,-1.3711522817611694,-1.0358173847198486,-0.02294308878481388,-0.03145420178771019,1.5773983001708984,0.47678935527801514,1.5498356819152832,-1.0086292028427124,0.6612294316291809,2.3727049827575684,1.1512641906738281,-2.5151126384735107,2.5027363300323486,1.7615351676940918,1.0814515352249146,0.8804941773414612,0.1481262594461441,-0.1508730798959732,-1.19927179813385,0.33655768632888794,2.2732536792755127,1.9063215255737305,0.3917815089225769,-1.3514103889465332,-0.3164481520652771,-0.4742831885814667,-0.1833491176366806,-0.3655060827732086,-0.8590188026428223,0.5223716497421265,1.3829245567321777,-0.26132574677467346,1.9487547874450684,-1.8585950136184692,-2.2833051681518555,-0.6923861503601074,-0.3756561875343323,1.2151989936828613,1.1310908794403076,-1.0641751289367676,-0.565854549407959,0.0834614485502243,1.6515735387802124,0.7603746056556702,-1.083633542060852,-0.026882657781243324,0.9683506488800049,-0.5365644693374634,-0.9801671504974365,0.5277318954467773,-0.6478061079978943,-0.39018693566322327,-1.6881985664367676,-0.6104185581207275,0.048073116689920425,-1.1061517000198364,0.8286045789718628,-0.13815194368362427,0.2437133640050888,-0.1520739197731018,0.9527050256729126,0.03892279043793678,0.5942450761795044,0.9969488382339478,-2.6117396354675293,0.24332928657531738,1.4025787115097046,-1.6816999912261963,-1.6424672603607178,-0.6065571904182434,1.5493084192276,0.8674122095108032,1.3308924436569214,0.22043448686599731,-0.33039072155952454,-0.9494339823722839,-1.3623586893081665,-0.005792026408016682,2.7137115001678467,-1.6361924409866333,-0.29256361722946167,0.8595759272575378,-0.003324260236695409,2.207475423812866,-0.9326581954956055,0.08756471425294876,-0.6511613726615906,-0.12223324179649353,0.1478775441646576,0.011800704523921013,-0.38121819496154785,-0.7641093730926514,0.21722199022769928,-0.3902687728404999,-0.31144440174102783,-0.46079888939857483,-0.8362594842910767,-0.4401203691959381,-1.2449301481246948,2.029522180557251,0.6671668887138367,-0.2838147282600403,0.7547736763954163,-0.8150660991668701,0.6406049132347107,0.009346443228423595,0.3730826675891876,-0.36913299560546875,0.07708415389060974,-0.8333980441093445,0.5405970811843872,0.23126746714115143,-0.34294945001602173,-0.23727048933506012,-1.5016674995422363,-0.3795943260192871,-0.29035165905952454,-1.6946390867233276,-1.1374456882476807,-0.3917856514453888,0.27922606468200684,0.08989152312278748,-0.04290274158120155,0.7315439581871033,-2.418975353240967,0.6229410171508789,1.5171771049499512,1.1293014287948608,0.5293905735015869,-0.45882707834243774,-0.1972159892320633,-0.7873154878616333,-0.4002825617790222,-1.5302433967590332,-0.16704969108104706,-0.14038591086864471,-1.0629104375839233,-2.3159120082855225,1.1935865879058838,-0.18849104642868042,0.0350358821451664,1.1415235996246338,1.0931870937347412,-1.4065076112747192,1.422969937324524,-0.5285850167274475,-2.582145929336548,0.8769746422767639,2.020956516265869,1.423079252243042,-1.6013500690460205,-0.08867142349481583,-0.539781391620636,-0.11760035157203674,0.48242950439453125,0.7468163371086121,0.6055517196655273,-0.4525936245918274,-0.14112865924835205,-0.1292930394411087,-0.5556463003158569,-0.22238846123218536,1.0428107976913452,-0.03657085448503494,0.2912902534008026,1.5901859998703003,-0.45305097103118896,0.42298397421836853,1.488892912864685,-0.28021806478500366,-0.9767650961875916,0.6862024664878845,0.19269587099552155,0.38678857684135437,0.45808303356170654,0.622313916683197,-2.3992788791656494,0.3981570601463318,-1.0049517154693604,0.3888767659664154,-0.4287416338920593],[-0.19950290024280548,-0.3982650935649872,-0.0826110988855362,0.9508913159370422,0.5166907906532288,0.9468016028404236,1.1962931156158447,0.3776609003543854,1.9561487436294556,0.11423196643590927,-1.7188979387283325,1.3152062892913818,-0.8452292084693909,-1.1016790866851807,-1.660159707069397,-0.5794538855552673,-0.18404236435890198,-1.1320492029190063,0.09292818605899811,0.9806867837905884,1.6635005474090576,0.256862610578537,-0.4302459955215454,-2.9737517833709717,-0.021817276254296303,-1.2434966564178467,-0.21953831613063812,0.3445194363594055,0.18400879204273224,-1.247867465019226,-1.2985574007034302,0.48256203532218933,-0.842765748500824,0.703956663608551,0.633155107498169,-1.3233424425125122,0.6004641056060791,0.45226842164993286,0.23277144134044647,1.7310543060302734,-1.2478322982788086,0.23235543072223663,1.393027901649475,1.7262853384017944,-0.6245409250259399,-0.26255545020103455,2.0352237224578857,-0.5051986575126648,-0.931004524230957,0.8982097506523132,1.5279086828231812,1.7957090139389038,-0.9695903062820435,-0.13959640264511108,0.20199841260910034,0.45677000284194946,0.7926727533340454,1.128117561340332,-0.36041662096977234,-0.19744186103343964,-0.9851193428039551,-1.2235071659088135,-1.059178113937378,-0.26210179924964905,-0.6150071024894714,0.8779224157333374,0.9794420599937439,-0.04119269922375679,1.5330350399017334,1.25437331199646,1.3536741733551025,1.3752915859222412,1.7652376890182495,1.0880666971206665,1.457662582397461,0.7879265546798706,-0.8115518689155579,-0.6393612623214722,0.7723296880722046,-0.9192309975624084,-0.6561720371246338,-1.1233285665512085,0.07051368802785873,-0.4038923382759094,2.4518446922302246,-0.1855306178331375,1.0612131357192993,0.47431015968322754,-0.7019978761672974,-0.5021356344223022,0.1913353055715561,0.7682658433914185,0.05729657784104347,-3.621727228164673,0.18919217586517334,-0.2711009979248047,-1.2766000032424927,0.5424807667732239,0.48959749937057495,-1.8591605424880981,0.3652576506137848,-0.33962884545326233,-0.9920288324356079,1.9060882329940796,-0.10812032222747803,-0.5501221418380737,-0.08749965578317642,0.9473304152488708,0.6914570927619934,0.6686476469039917,-0.629893958568573,1.6510765552520752,-0.13241219520568848,-0.9523353576660156,-1.6833382844924927,-1.1678346395492554,1.214218020439148,-0.051112908869981766,-1.1465048789978027,1.28449285030365,-0.5282358527183533,-1.0773147344589233,-0.6321067214012146,-1.0899349451065063,-0.13618378341197968,0.5862247943878174,-0.5365960597991943,-0.08894958347082138,0.7249801754951477,0.5323225855827332,2.1866443157196045,-0.1638052761554718,-1.3998020887374878,0.25942903757095337,1.2885762453079224,0.28457143902778625,0.18014000356197357,-0.11358462274074554,-1.1046125888824463,0.618056058883667,-2.018218994140625,1.0237056016921997,0.4192471206188202,0.5888565182685852,-1.5881798267364502,-0.302532821893692,0.32401832938194275,-0.164195716381073,-1.739043116569519,1.0746681690216064,-1.3014582395553589,-0.18207129836082458,-1.0223408937454224,-0.9859816431999207,-0.8652617931365967,-1.2526097297668457,0.6930719614028931,-2.2296576499938965,-0.3788732886314392,-2.417882204055786,1.1981620788574219,0.21660976111888885,1.5640957355499268,-1.1591304540634155,-0.7791539430618286,2.7426936626434326,-0.18182341754436493,-1.6327974796295166,1.6530885696411133,-0.031343407928943634,0.19625620543956757,-0.4378938376903534,0.6714299917221069,-0.745684802532196,-0.7075461745262146,0.6951839327812195,-2.0542500019073486,-0.22858896851539612,-1.3002325296401978,-1.1299042701721191,0.22711114585399628,-1.7797417640686035,-2.5985729694366455,0.7391511797904968,-0.4044126570224762,0.45997458696365356,-0.2617625594139099,0.9779079556465149,-0.7469432950019836,-1.324569821357727,0.9871286153793335,-0.2665514647960663,0.28238826990127563,-0.07702373713254929,2.603787422180176,0.6803451180458069,0.7617235779762268,1.3805692195892334,0.4977531433105469,0.7403640747070312,-0.5371889472007751,1.7878772020339966,1.3315777778625488,-0.28048765659332275,-2.6647229194641113,1.0584900379180908,-1.550855040550232,-0.2234543263912201,-1.823117733001709,-0.11887585371732712,-0.08990952372550964,-0.9686270952224731,-2.1893982887268066,-0.994824230670929,-2.0434725284576416,1.3609837293624878,2.392833709716797,-1.4980014562606812,1.3333112001419067,2.286921739578247,-1.385351300239563,-0.8750414848327637,0.4477083683013916,1.0335307121276855,-0.7592281103134155,-0.990969717502594,0.44421324133872986,1.8980156183242798,-0.2614511549472809,0.30811047554016113,0.03492685779929161,-2.2107086181640625,-0.6002511978149414,-1.8991570472717285,-0.14295634627342224,0.12765033543109894,-0.378584623336792,-1.1095603704452515,-0.6933338046073914,0.06434416025876999,0.29722222685813904,2.5609054565429688,-0.6839032173156738,0.8162089586257935,0.12845838069915771,-0.32156291604042053,0.5326887965202332,1.5269218683242798,1.6058287620544434,0.6576933264732361,0.8779150247573853,1.7516475915908813,1.6999009847640991,-0.20957884192466736,1.0290155410766602,0.7809542417526245,-0.4340280294418335,-0.9745573997497559,0.3946956694126129,-0.09470346570014954,0.6595094203948975,0.06943486630916595,0.16041313111782074,-2.521700382232666,-3.008510112762451,0.06974989175796509,2.281148672103882,1.6093790531158447,-0.6460682153701782,0.4853972792625427,-1.7535847425460815,0.8595511317253113,-0.6314470171928406,2.323490858078003,-1.666031837463379,1.5147309303283691,-0.2992189824581146,-0.19758352637290955,0.38141119480133057,-0.24272751808166504,0.3814866542816162,1.4956612586975098,0.42536771297454834,2.5138344764709473,0.22715124487876892,-0.8419176936149597,-0.34464776515960693,0.09815257787704468,0.6267222166061401,-1.82681405544281,-2.935579538345337,-0.8761862516403198,0.15313246846199036,1.2214511632919312,0.8029682040214539,1.0555591583251953,-1.3119577169418335,0.12881577014923096,1.5039268732070923,-0.5399282574653625,-1.031221866607666,0.0308463666588068,-0.5083960294723511,0.013375097885727882,0.19702428579330444,-0.7353194952011108,1.1099212169647217,0.4404642581939697,0.5341986417770386,1.1584564447402954,-1.6512494087219238,-0.6532900333404541,-0.772567629814148,-1.691909670829773,0.5893672704696655,-0.786255419254303,1.1781306266784668,-0.4916377067565918,1.231400728225708,0.7756709456443787,0.2378305345773697,1.8640614748001099,1.7028268575668335,0.626697301864624,0.19770722091197968,-1.6268638372421265,-1.7062938213348389,-1.1205084323883057,-0.32928672432899475,0.4286331832408905,0.07227879762649536,-1.2001452445983887,0.7614212036132812,0.08301743865013123,0.9963410496711731,0.8604729771614075,1.3961044549942017,1.3872305154800415,-0.7245537638664246,-0.4208107888698578,-0.47233331203460693,0.6171262860298157,-1.063876986503601,0.10522584617137909,-0.535980224609375,-0.2655133605003357,0.15235872566699982,-0.3813832402229309,-1.9683068990707397,2.184366464614868,1.1442781686782837,-0.847694456577301,0.6014202833175659,0.5041843056678772,-1.212742805480957,-0.800315260887146,0.15551617741584778,1.1026196479797363,-0.6805580854415894,-1.074885606765747,-1.5300958156585693,-0.7423660755157471,-0.09420353174209595,-0.5304611921310425,-1.7848421335220337,-0.7608669400215149,-1.6431655883789062,0.05015449598431587,0.18312940001487732,-1.2787206172943115,-0.42206504940986633,-0.5584964156150818,-0.37149226665496826,-2.858340263366699,0.9915369749069214,-0.13271082937717438,-0.30729687213897705,-0.5443289875984192,1.014308214187622,-0.20097799599170685,0.06128181517124176,-0.48804232478141785,-1.2856825590133667,-0.6817982196807861,-1.1037300825119019,-1.448543906211853,-0.07822341471910477,-0.8786442875862122,-1.0689769983291626,-0.9623810052871704,0.41376179456710815,0.3676275908946991,-1.1486953496932983,-2.7988688945770264,-0.5251544713973999,0.31887999176979065,0.7896260023117065,-1.369083285331726,-0.6973744630813599,0.1412828415632248,0.5664999485015869,0.7621118426322937,-0.8976278901100159,0.48420199751853943,-0.6469777822494507,1.7756272554397583,1.9953596591949463,1.558608055114746,-0.6298144459724426,0.3481338620185852,-0.07014895230531693,0.6463117599487305,0.9817330241203308,0.16880136728286743,-0.5483309030532837,-0.3871505856513977,1.223232388496399,-1.9532763957977295,-0.08153993636369705,2.225642442703247,2.0626413822174072,-0.1814151555299759,1.8718308210372925,-0.591068685054779,-0.3491319715976715,0.1397351175546646,0.19394342601299286,0.19660229980945587,1.544876217842102,1.454500675201416,-1.0176085233688354,-1.5523426532745361,0.6365132927894592,-0.9793714880943298,0.31622210144996643,-3.2277042865753174,-1.297476887702942,-0.6908115744590759,-1.449878215789795,0.6599207520484924,2.1018686294555664,-2.4113643169403076,0.695362389087677,-0.32715532183647156,1.0012449026107788,-1.10184907913208,-0.16621819138526917,1.2218601703643799,-0.1412440985441208,-1.8365697860717773,-0.8555957078933716,-0.6679335832595825,-0.3614526093006134,-0.08365001529455185,-1.966806173324585,0.3279106914997101,-2.664634943008423,0.25710564851760864,-0.005583606660366058,-0.20330457389354706,-0.13903307914733887,-0.14821727573871613,2.0334129333496094,0.0825846716761589,-0.5384096503257751,-0.5652257800102234,0.3074084520339966,-1.2305395603179932,-0.40156280994415283,1.3316303491592407,-0.675422191619873,-0.8056856989860535,0.31134212017059326,-0.8405120968818665,1.0339598655700684,-0.7023172378540039,1.1096071004867554,0.24374398589134216,-0.1487680971622467,-1.5112727880477905,0.5373808145523071,-1.7448889017105103,-0.18702253699302673,-1.369629979133606,-1.7402738332748413,-2.381683349609375,1.1914571523666382,-1.5239523649215698,0.15805268287658691,-0.08386781066656113,0.9263461828231812,0.21552565693855286,0.00966925173997879,-0.36151859164237976,-1.0139268636703491,-0.23813344538211823,-1.4532793760299683,-1.0438807010650635,-0.13334453105926514,-0.48173171281814575,-0.03646671399474144,-0.7738168835639954,-0.38248515129089355,-0.4081125259399414,2.723855495452881,1.1261866092681885,0.11717891693115234,-0.5146598815917969,-1.0106241703033447,0.606467068195343,0.47439372539520264,0.22616752982139587,0.0990440621972084,0.29334568977355957,-0.7052653431892395,-0.4778399169445038,0.4171321988105774,1.3757905960083008,1.7094898223876953,0.29709669947624207,0.01763594150543213,0.1760515421628952,-1.151413917541504,-0.017691966146230698,-1.5166326761245728,-0.3004378378391266,-0.36853349208831787,-1.0070406198501587,-0.9199846386909485,-1.7479710578918457,0.13861271739006042,0.7895265221595764,-0.05469958111643791,0.4227285087108612,-0.5681477189064026,0.21128815412521362,0.7551090121269226,0.6837474703788757,0.04208242520689964,0.3705611824989319,-2.212003469467163,0.14665351808071136,0.8469387888908386,0.4810076653957367,-0.6761888265609741,-0.46481838822364807,1.9145214557647705,-0.2067704200744629,-0.0450003482401371,0.19592632353305817,-0.4259825348854065,-0.5893131494522095,0.8066846132278442,-1.2274775505065918,0.33736664056777954,-0.3629937767982483,0.21518932282924652,-0.6799067854881287,-1.8704311847686768,-1.4440844058990479,-1.8000504970550537,-1.1190510988235474,-0.15498866140842438,-2.833383321762085,-1.3551459312438965,-0.2861371338367462,0.41410186886787415,0.13635356724262238,0.3680543601512909,1.1675302982330322,-0.004668071400374174,2.15299129486084,0.6202243566513062,0.21177546679973602,-0.24504537880420685,-0.38473811745643616,0.5251446962356567,0.5039339065551758,-0.37117308378219604,-0.5224844217300415,-1.4994533061981201,0.5655354857444763,1.2703685760498047,0.043402526527643204,-0.5126544237136841,0.6738240718841553,0.11958383023738861,0.34601330757141113,-0.8886615633964539,1.2274816036224365,-1.1720969676971436,1.670964241027832,0.8687364459037781,-1.0050691366195679,0.7255192399024963,-1.2689110040664673,0.8028784990310669,2.1520211696624756,0.5656375288963318,1.3510143756866455,0.7870149612426758,-1.5015114545822144,1.4028369188308716,-0.5716812610626221,0.8559479117393494,-0.7217016220092773,-1.2560737133026123,-1.0495349168777466,-0.410995751619339,-1.7044726610183716,-0.01868295483291149,-0.48400843143463135,-0.13029266893863678,0.09238661825656891,0.36499395966529846,-0.3951977789402008,-0.051544662564992905,-1.5550061464309692,0.5281881093978882,1.2670458555221558,0.11108056455850601,0.0036426326259970665,-1.8563861846923828,0.12936995923519135,-0.4013351500034332,-1.724584937095642,-0.6404061317443848,-1.1810364723205566,-2.303497791290283,-0.4020686745643616,-0.7256534695625305,-0.04826364293694496,-2.004810333251953,2.0782177448272705,-0.750490128993988,1.9837656021118164,-0.1144680604338646,0.347173810005188,-0.13980171084403992,0.7143528461456299,0.09682222455739975,-0.9742437601089478,-1.3578174114227295,0.15881142020225525,0.39596572518348694,-0.5984373688697815,-0.14695066213607788,-0.4639536738395691,-0.4243195056915283,0.133982852101326,-1.0588769912719727,1.253688097000122,-0.16904649138450623,0.4430326819419861,-0.3835807740688324,-0.18240948021411896,0.08305506408214569,-0.0823761597275734,-0.03805810958147049,0.7382380962371826,-0.7942495942115784,0.7952691912651062,0.16534501314163208,-1.2917535305023193,-1.88373863697052,-0.3813931941986084,-0.7484232187271118,-0.586244523525238,-0.5135263800621033,-0.7789751887321472,-0.022200599312782288,0.4059131145477295,2.2981128692626953,-1.2450968027114868,-1.4259753227233887,1.3422263860702515,-0.13266240060329437,1.1090099811553955,1.5079936981201172,0.6146020293235779,-0.3893919885158539,0.2723243534564972,0.9120107889175415,0.37862908840179443,-1.1705431938171387,1.3928251266479492,-1.5396572351455688,-0.032191574573516846,0.051852378994226456,-1.8876346349716187,-1.2509404420852661,-0.7048940062522888,-2.297823429107666,-0.4205668866634369,-0.21059849858283997,-0.7006012797355652,-0.24313659965991974,1.0019841194152832,0.3782137930393219,-0.5195171236991882,-0.2791788578033447,-0.7345972061157227,-0.3680075407028198,0.9019739627838135,-0.2861615717411041,0.882451593875885,0.8546386957168579,-1.4304505586624146,1.475890040397644,0.2008587270975113,-1.862837553024292,-0.737155020236969,0.4929039776325226,0.7483701109886169,-1.0146632194519043,2.159290075302124,-1.0920636653900146,0.06365499645471573,-0.006169151049107313,0.5679439902305603,-0.8537665009498596,0.3162094056606293,1.2063874006271362,-0.19338300824165344,0.37408706545829773,1.2389382123947144,-1.7120957374572754,-0.6069178581237793,-1.1477031707763672,-0.40171167254447937,-0.00038446803227998316,-1.4176115989685059,0.31652867794036865,0.44704392552375793,-0.8019259572029114,-0.17814794182777405,1.3199365139007568,1.9086540937423706,0.46123620867729187,0.9850890040397644,-0.00021557016589213163,-2.4830262660980225,-0.20906253159046173,-0.30632203817367554,-2.0874063968658447,-1.8921242952346802,0.4100807011127472,0.7201223969459534,0.541456401348114,0.05473700538277626,2.1297647953033447,-0.5052322745323181,0.3551751971244812,-0.16404147446155548,-0.4700302481651306,1.8601199388504028,1.3841156959533691,1.5075032711029053,-1.0623050928115845,-0.4670279324054718,-1.517153024673462,2.1553900241851807,-0.03966843709349632,-1.4102141857147217,-0.029488278552889824,-0.9543729424476624,-1.9762213230133057,0.4955775737762451,-0.48332610726356506,1.321655511856079,0.2231915444135666,-0.9285383820533752,0.3038361072540283,-1.3606512546539307,0.45668771862983704,-0.4941403269767761,0.34846702218055725,0.09486248344182968,-0.3057197332382202,-0.40538182854652405,0.7359554171562195,-1.2847338914871216,1.5485341548919678,0.2230214625597],[0.21059530973434448,-0.38847360014915466,0.06370999664068222,-1.5863821506500244,0.49353450536727905,0.8474836945533752,1.704626441001892,-0.21369080245494843,0.5438807010650635,-1.2063100337982178,0.415306955575943,0.5690274238586426,-1.638677716255188,-1.6083539724349976,-1.6145108938217163,-0.07896575331687927,-0.5002425909042358,0.3539264500141144,0.5897945165634155,-0.04984669014811516,2.0953547954559326,-1.943116307258606,0.08791523426771164,1.522117018699646,0.12106188386678696,-2.1121418476104736,-0.34984514117240906,-1.7257050275802612,0.6688365936279297,0.13759419322013855,1.1015368700027466,0.3771957457065582,-0.5896611213684082,-0.35220879316329956,0.42613062262535095,-0.8505308032035828,-0.2800295352935791,-0.5715871453285217,-0.25076624751091003,-0.8441718816757202,2.1482722759246826,-0.7958594560623169,-1.16366708278656,-0.11461169272661209,-0.7442013621330261,-1.3321356773376465,0.2782244086265564,0.8332181572914124,0.13805855810642242,1.1779497861862183,0.6247802376747131,-0.7263206243515015,1.423479437828064,-1.273160457611084,0.5962693691253662,-0.0964244082570076,0.11333297938108444,0.15323477983474731,-2.4807145595550537,1.0322598218917847,-0.6330758333206177,0.333252876996994,0.8403692245483398,0.6768609285354614,0.6059204936027527,1.2444671392440796,1.2763882875442505,0.33536797761917114,-0.013962330296635628,0.5110266208648682,0.6565052270889282,-0.4650552272796631,1.8926447629928589,1.5528535842895508,-1.2897145748138428,0.8894091844558716,-1.0481994152069092,1.0836504697799683,-1.2017982006072998,0.8050981163978577,0.344500869512558,0.48537805676460266,0.06764737516641617,-0.37318965792655945,-2.808248281478882,2.190659523010254,0.15284839272499084,1.4304485321044922,-0.14660707116127014,0.05792797729372978,-0.200430765748024,0.26842257380485535,1.056443691253662,-0.6463749408721924,-0.12595480680465698,-1.0034899711608887,0.5664082169532776,0.6084088087081909,0.007489824667572975,1.4956449270248413,1.4396682977676392,-0.2543582022190094,-0.5027765035629272,0.9941218495368958,1.1157660484313965,-0.2990420460700989,0.697274386882782,-0.7050445675849915,-0.2633810043334961,-1.0450663566589355,0.09914986789226532,-1.8728790283203125,1.318571925163269,-1.1338688135147095,0.7811845541000366,-0.10362571477890015,-1.0347806215286255,1.2525466680526733,-0.33610305190086365,-1.5522520542144775,-0.30258840322494507,-0.034530654549598694,0.3621792793273926,0.45914843678474426,1.5027551651000977,0.2978534400463104,-0.29097551107406616,-0.2537083327770233,1.122501015663147,-0.46974605321884155,0.7888832092285156,-1.1744239330291748,1.3601925373077393,0.7358030676841736,-0.449771910905838,-0.10530287772417068,-0.33555033802986145,0.47246384620666504,-0.2677934467792511,1.2900211811065674,0.36242106556892395,-1.1717064380645752,-0.706352710723877,-0.6939655542373657,0.29018303751945496,0.6316320896148682,0.5258229970932007,-0.5343847274780273,-0.4039916694164276,1.0091211795806885,0.7352856993675232,0.334757924079895,-1.1188774108886719,-0.8922311067581177,-0.9240617156028748,-0.01435990259051323,-0.08543333411216736,1.1234571933746338,0.04165637865662575,0.8612432479858398,-0.9697926640510559,-1.2867883443832397,-0.7322907447814941,0.4868670403957367,-0.4287967383861542,2.3097407817840576,-0.24609841406345367,-0.8399638533592224,0.8904792070388794,1.5558170080184937,1.3770041465759277,1.111855387687683,1.5815876722335815,-0.42770394682884216,0.5879642367362976,0.15549105405807495,1.9650521278381348,-0.3159967064857483,0.3751867115497589,0.08973372727632523,-0.8922705054283142,-1.284529685974121,-1.1896837949752808,-1.090883493423462,0.0659138634800911,-2.1270577907562256,0.4317822754383087,0.43204182386398315,-0.14451517164707184,-0.8595800399780273,-1.403114914894104,-1.1506725549697876,0.4330517053604126,1.3014678955078125,-0.1955932229757309,1.5086661577224731,-0.3918575346469879,-0.8725252747535706,-0.886728823184967,-1.9316149950027466,-0.849439799785614,2.6166670322418213,-0.31296849250793457,0.7536007761955261,2.479858160018921,1.259289026260376,-1.1485183238983154,0.10030172765254974,-0.4083859920501709,-0.49349650740623474,-1.333482265472412,-0.8291259407997131,1.2898659706115723,-1.0133649110794067,-0.026010457426309586,1.4036338329315186,0.20429322123527527,-1.2321760654449463,-0.36061638593673706,0.637423038482666,-0.34677034616470337,-2.3070669174194336,-0.2644803524017334,0.3435693085193634,0.050817739218473434,-0.21386006474494934,-0.7166236639022827,-0.08473449945449829,0.4114890396595001,1.4527772665023804,0.6421236991882324,0.04351639002561569,0.09168121218681335,-1.3743195533752441,-0.5621229410171509,1.9452309608459473,-0.29977765679359436,0.7263296246528625,0.6004534959793091,-0.9152342081069946,-1.2644585371017456,-0.16751384735107422,-1.4609742164611816,0.36904406547546387,-0.937725841999054,-0.48907750844955444,0.5282990336418152,0.37013110518455505,-0.5765394568443298,-0.5422483682632446,0.2877486050128937,0.99196857213974,1.4103171825408936,-1.344860315322876,-0.6405693888664246,2.384617328643799,0.8235996961593628,0.37839844822883606,2.6169919967651367,0.45189204812049866,0.14261293411254883,1.5895278453826904,-0.3145418167114258,-1.2851132154464722,-2.1332528591156006,-0.7337690591812134,-1.150394320487976,0.016384828835725784,0.2851904332637787,-0.06475290656089783,0.6387349963188171,1.011397361755371,1.471301794052124,-1.0855681896209717,0.13515998423099518,0.5605334043502808,1.7797675132751465,-0.5153874754905701,0.5130674242973328,-0.16047921776771545,0.8508733510971069,-0.458707332611084,0.18363039195537567,0.9745891690254211,0.7071228623390198,0.30852845311164856,-0.4871901571750641,1.2662936449050903,0.25136080384254456,-2.8656957149505615,1.500769019126892,0.7594971656799316,-1.0334111452102661,-1.7870575189590454,-1.3192856311798096,-0.6695465445518494,1.976881980895996,1.2027184963226318,0.3939499258995056,0.24335967004299164,-0.9119999408721924,1.2416489124298096,0.4303891062736511,-0.6874683499336243,-0.01280225906521082,-0.37274646759033203,-1.194416880607605,-0.6923816800117493,-0.1683327704668045,-1.6748427152633667,1.0047551393508911,-0.055850934237241745,-1.1273711919784546,2.238455295562744,-2.037459135055542,-0.15240375697612762,-1.9810789823532104,-0.6426849961280823,-0.8383079171180725,-1.461786150932312,-0.27139851450920105,-1.339001178741455,0.11029773205518723,0.8092073798179626,-0.5310467481613159,0.6123206615447998,0.2589457929134369,1.176289439201355,1.2889186143875122,0.18970881402492523,-0.17044341564178467,-1.8203223943710327,-2.0125813484191895,-1.9388151168823242,0.6859621405601501,0.4863482117652893,0.6400688290596008,0.7765288352966309,1.1118226051330566,0.644959568977356,-0.49715521931648254,0.7720349431037903,-2.3197174072265625,-2.2658984661102295,-0.9503220915794373,-1.5302635431289673,-0.9733574390411377,0.4361132085323334,-0.31931596994400024,1.5813498497009277,-1.0953412055969238,0.5072070956230164,0.11710329353809357,0.35540571808815,1.2345612049102783,0.07364138215780258,-1.3804411888122559,-0.6258271932601929,0.9433520436286926,0.21960295736789703,-0.8331586718559265,-2.6789450645446777,0.07509025186300278,-0.3065730333328247,-0.909641444683075,1.267507553100586,0.9870821237564087,1.289400577545166,1.2878526449203491,-0.1599370241165161,-0.6704028248786926,-0.4431816339492798,-0.7133636474609375,-0.0989207923412323,-1.0921447277069092,0.6030821204185486,0.7801741361618042,0.7083262205123901,0.6436704993247986,-1.009962558746338,-0.4591730237007141,0.684647798538208,1.204140067100525,0.5243954658508301,-1.2311427593231201,1.1506850719451904,1.529746413230896,-0.2429284006357193,-1.486141562461853,-0.5574683547019958,-1.0675185918807983,0.3878024220466614,-2.0762012004852295,-0.6439040899276733,1.226965308189392,-0.5742205381393433,-0.5871009826660156,0.09221278131008148,-0.4509248435497284,-0.6168374419212341,1.2267029285430908,-0.5076987743377686,0.7228883504867554,-0.5064184665679932,0.2812906801700592,1.12834894657135,0.1590341329574585,-1.1546334028244019,0.41269537806510925,-2.2921996116638184,-0.7975518107414246,3.1804535388946533,-1.167070746421814,0.741655170917511,-0.07392667979001999,2.4004759788513184,-1.0434309244155884,-0.11725860834121704,1.2974470853805542,-0.12454796582460403,0.6208913326263428,1.5083332061767578,-0.47466108202934265,0.46029943227767944,-0.323454350233078,0.2293233871459961,-0.5584896802902222,0.6991093754768372,-0.1609211266040802,-1.280725121498108,-0.07599664479494095,0.1331552118062973,-1.0078184604644775,2.321519613265991,-0.45305323600769043,-1.045594334602356,-0.7895075678825378,1.4091826677322388,1.5301491022109985,1.8124644756317139,-0.5143125057220459,-1.018393874168396,0.16826827824115753,0.702206015586853,0.4035007357597351,0.21478702127933502,1.473758578300476,1.6550623178482056,-1.2181270122528076,0.10675673186779022,0.6381560564041138,-0.3618064820766449,1.0657908916473389,-0.6349732279777527,-0.7273484468460083,0.5222996473312378,-0.05023925006389618,-0.5394439101219177,-1.629741907119751,0.19175341725349426,-1.320609211921692,0.46517226099967957,1.042859435081482,-0.9811884164810181,-0.42391273379325867,2.8382487297058105,-0.7133283615112305,-0.003490762086585164,-0.4067744016647339,0.7352962493896484,-1.0654230117797852,-0.8122746348381042,0.27129435539245605,-0.2417844533920288,1.685632348060608,0.161521777510643,0.501911461353302,1.1304874420166016,1.2567100524902344,1.6056193113327026,-0.35806217789649963,0.39010855555534363,-0.3928528130054474,-0.8247647881507874,-0.6392194032669067,-1.382880449295044,0.10521115362644196,-1.2255290746688843,0.670393705368042,-0.6086312532424927,-1.8293567895889282,1.467470407485962,0.6376646757125854,1.3498809337615967,1.373010277748108,-2.4820339679718018,0.5877466797828674,1.35370671749115,-0.5846378207206726,-0.37936294078826904,1.0757818222045898,0.17270439863204956,0.1795758455991745,-0.4612346887588501,-0.4587993919849396,0.6658191084861755,-0.11851098388433456,0.6162840127944946,2.0601751804351807,1.2745472192764282,-0.9957777857780457,0.6220113635063171,-1.2142843008041382,0.6523944139480591,-1.3109605312347412,-1.5464541912078857,0.1503254473209381,-2.204700231552124,-1.0329376459121704,0.5335796475410461,1.1445963382720947,-0.24260978400707245,1.5491721630096436,-0.31697502732276917,0.11859254539012909,0.8871166110038757,1.377998948097229,-0.4437156617641449,1.7973767518997192,1.102776050567627,-1.227413296699524,1.6169743537902832,-1.4515421390533447,-0.1261875033378601,-0.3711467683315277,-0.19553358852863312,1.3160978555679321,1.5692168474197388,0.06837333738803864,0.38181233406066895,-0.7952694296836853,-1.962361216545105,-0.37244659662246704,-0.8686774969100952,-1.6443828344345093,0.48950791358947754,0.9778285026550293,-0.8686557412147522,-0.07733049988746643,0.28518471121788025,-1.2398775815963745,-0.010365547612309456,-0.5977555513381958,-0.4645686149597168,-0.1652178019285202,0.10162688046693802,0.0998697429895401,-0.9352704882621765,0.6716374754905701,-2.069859266281128,1.7259278297424316,0.29778093099594116,-0.017454521730542183,1.3150900602340698,1.598044753074646,0.5134316682815552,0.8294787406921387,-0.22353693842887878,0.778817355632782,-0.032404106110334396,-0.9794849157333374,0.705253005027771,0.7277073264122009,0.1339394748210907,0.7551670074462891,-0.6392331719398499,0.7837886810302734,-0.7873983383178711,2.5776824951171875,-1.3916212320327759,-0.29961031675338745,-0.058040864765644073,-0.7954084873199463,-0.8944392204284668,-0.03659979626536369,-1.7337009906768799,-0.1116860881447792,0.18788428604602814,-0.20917046070098877,-0.20060373842716217,-0.3519688546657562,1.7207369804382324,0.36392638087272644,-0.41444966197013855,-0.36121657490730286,0.020265163853764534,-1.1032907962799072,-1.9168896675109863,0.9202204346656799,-1.0551196336746216,-1.5081921815872192,-0.41671884059906006,0.45608845353126526,-0.5571920871734619,0.7123402953147888,0.16903556883335114,-1.4086827039718628,-0.364363431930542,1.0141668319702148,2.6396780014038086,-0.16789202392101288,0.6728937029838562,-0.8719449639320374,0.9290070533752441,0.4417114555835724,-0.7176066637039185,0.9909020662307739,0.40094369649887085,0.9044392704963684,1.9033126831054688,-0.40771493315696716,0.3375687301158905,-0.6785840392112732,1.1825426816940308,-1.4217205047607422,1.1184160709381104,0.4143858551979065,0.04208952561020851,0.11292058974504471,-0.43197306990623474,0.7160628437995911,1.1993118524551392,0.6272346377372742,1.7216073274612427,1.507285237312317,1.1148438453674316,0.055208392441272736,0.3951205313205719,-1.7571786642074585,0.18233399093151093,0.18988245725631714,-0.581418514251709,0.9965807199478149,0.5176075100898743,0.03203438222408295,-0.5500654578208923,0.42277854681015015,-0.41777870059013367,-0.30953720211982727,1.3385127782821655,0.613237202167511,-0.22895902395248413,1.0059325695037842,-0.7310112714767456,-0.10943443328142166,1.634834885597229,0.121855229139328,1.644496202468872,-0.2567708492279053,0.7133822441101074,0.12453175336122513,-0.9384031891822815,0.45099368691444397,0.3411403000354767,0.3874129056930542,0.350238561630249,-0.28584256768226624,0.7178820371627808,-0.8583658933639526,-0.6208958029747009,0.8567211031913757,-0.4924154281616211,-2.2214081287384033,-0.43959203362464905,-1.6399744749069214,1.388944149017334,0.7018948793411255,-0.1374543011188507,0.2724843919277191,0.38828399777412415,0.7570094466209412,0.943120002746582,-0.9522451162338257,-0.2920368015766144,-0.8797004222869873,2.318089485168457,-0.41509953141212463,-0.24909450113773346,-1.470091700553894,-0.0571613647043705,-1.2631186246871948,0.8781883716583252,-0.6942244172096252,-2.146430015563965,0.7990597486495972,-0.46743422746658325,-0.2637202739715576,0.9788181185722351,0.7096378207206726,-1.2936164140701294,-0.3587844669818878,-1.1598868370056152,0.7147865295410156,-1.6917917728424072,1.2050940990447998,-2.5910987854003906,-0.7623867988586426,0.3777937591075897,0.030016859993338585,0.2574770748615265,0.22055000066757202,0.6519622206687927,2.026031970977783,0.25578317046165466,1.343855381011963,0.9134303331375122,0.39719539880752563,-0.76848965883255,-0.7559792995452881,-0.37296444177627563,-1.3325450420379639,-1.5940181016921997,-1.0902717113494873,0.16985632479190826,-0.4189511835575104,0.5132295489311218,1.7536603212356567,-1.5532982349395752,0.6333751678466797,-0.784649133682251,-0.4387332797050476,-1.1609598398208618,0.9816679954528809,0.23959185183048248,-0.9892343282699585,0.0680389329791069,1.2753907442092896,0.6150400638580322,0.4293842315673828,0.8268400430679321,1.5465168952941895,-2.8843071460723877,0.15126079320907593,-0.34294089674949646,1.5643619298934937,0.09700734913349152,-1.2410873174667358,-0.8196751475334167,1.001314401626587,-0.9219071865081787,-0.5102145671844482,-0.3536407947540283,0.2297324240207672,-1.0979183912277222,-0.11719030886888504,0.4119260311126709,-0.7894123196601868,-1.2657564878463745,0.4742284119129181,-0.11094476282596588,-0.2618815004825592,0.08130348473787308,-0.01956399902701378,1.2817431688308716,0.030670935288071632,-0.660064697265625,0.36361274123191833,0.29938820004463196,1.281635046005249,-0.019363004714250565,0.5280521512031555,-1.4987291097640991,0.0892658531665802,0.8366513848304749,-1.9284658432006836,-0.4347723126411438,-1.669090986251831,0.006136547774076462,0.08849873393774033,-0.056780193001031876,-0.028387099504470825,2.028701066970825,-0.05874646455049515,0.6103149652481079],[0.8329866528511047,0.7912728190422058,-0.5912668108940125,1.8994227647781372,-0.08965027332305908,-0.1345238983631134,-0.27023109793663025,0.4228907823562622,0.3305305540561676,1.567331075668335,0.1038333848118782,0.789624035358429,-0.4673013389110565,-0.9754994511604309,-0.2953018248081207,0.8771676421165466,-0.7794487476348877,0.032451458275318146,-2.532802104949951,1.2910456657409668,-1.2424657344818115,-0.6179855465888977,0.6465132832527161,1.0567066669464111,0.8875648379325867,1.1669224500656128,-0.8810390830039978,-1.3375898599624634,0.5745791792869568,-0.9830332398414612,-0.24593906104564667,-1.6794856786727905,-0.8231328129768372,1.7801003456115723,-1.1597437858581543,-1.6524686813354492,-0.6400549411773682,-0.22505426406860352,-0.9306434988975525,-1.332846999168396,-0.2356443554162979,2.1120667457580566,1.4119890928268433,-0.18157772719860077,-0.37767910957336426,-0.998710036277771,-0.3103770315647125,0.029255229979753494,0.24250683188438416,-0.035906046628952026,-0.6053297519683838,-0.47131022810935974,-1.331146001815796,0.7595522403717041,-1.5911942720413208,-0.273599237203598,0.48658525943756104,-0.49163514375686646,-1.3923213481903076,0.2088644802570343,-1.492152452468872,0.19350644946098328,-0.5232396721839905,-0.9036343097686768,1.3004127740859985,-1.395764708518982,0.3582042157649994,-0.05978040769696236,0.05914824455976486,0.8387242555618286,-1.741356611251831,-1.257079839706421,0.3845689296722412,0.36263424158096313,0.15957631170749664,-0.18416544795036316,-0.44273829460144043,0.3718319535255432,0.4611419439315796,-0.040428292006254196,-0.8355788588523865,-0.7059040665626526,0.021376853808760643,-0.10180274397134781,-0.5158037543296814,-1.4460710287094116,-0.9884631037712097,0.24187421798706055,-0.35399988293647766,-1.687003493309021,1.426937460899353,0.8268834948539734,0.11373114585876465,0.43537089228630066,1.0147491693496704,0.0511622354388237,-1.4205584526062012,0.2235461175441742,0.7159674167633057,-1.741727352142334,-0.5729506611824036,-1.5065691471099854,0.5551561117172241,1.3705980777740479,-0.7623093128204346,1.5351794958114624,0.2501390278339386,0.40269845724105835,0.3261876404285431,0.1670614778995514,3.2227001190185547,-0.5245707035064697,0.2004171907901764,0.2952482998371124,-0.3669763505458832,-0.46714261174201965,1.1342706680297852,-0.5858479738235474,-0.3515017330646515,-0.43870270252227783,0.846038281917572,-1.9814882278442383,-0.21545366942882538,-0.6096361875534058,-1.6471924781799316,-1.6107748746871948,-0.8686563372612,-0.512281596660614,1.0588932037353516,0.021566001698374748,2.183804988861084,-1.048469066619873,-0.7997773289680481,1.2667678594589233,1.774086356163025,-0.27990859746932983,0.5414387583732605,-0.2560739815235138,-1.2534608840942383,0.3401798605918884,0.707682728767395,-0.3319456875324249,0.7501798868179321,-1.5803478956222534,-0.5343267917633057,1.123072862625122,-1.9823776483535767,-1.624663233757019,-0.15991105139255524,1.1155743598937988,-0.13885191082954407,-0.5867475271224976,-0.7967153191566467,-2.4174089431762695,-2.0760631561279297,-0.08271370083093643,-0.18915992975234985,-0.1537977159023285,-1.5694279670715332,0.45962995290756226,-0.2194748818874359,-0.26881635189056396,1.5370196104049683,0.43272829055786133,-0.8567432761192322,0.13909278810024261,-2.558558225631714,-1.669755220413208,0.7088134288787842,0.4179707467556,0.5981930494308472,-1.3942110538482666,0.3546249270439148,1.3785414695739746,-0.9629281163215637,-1.256224274635315,-0.4194227457046509,0.14914913475513458,-0.31006523966789246,-0.7336246967315674,-0.7226908206939697,0.5695248246192932,-0.08780038356781006,0.3241182267665863,-0.947887122631073,-0.5886193513870239,0.5856665372848511,0.28645059466362,0.6405788064002991,0.15055090188980103,2.1378748416900635,-0.09133052825927734,0.1687890887260437,-0.5681169629096985,-0.0035011039581149817,0.38565394282341003,-0.534670352935791,0.9956656098365784,-1.6496648788452148,0.8912644982337952,0.1536017656326294,0.28585734963417053,-1.767590880393982,-1.675694465637207,-0.1727365106344223,0.09932594746351242,-1.0102450847625732,0.03496452793478966,-1.320199728012085,-2.3313872814178467,0.25077298283576965,-2.0896055698394775,0.24926303327083588,0.335982084274292,-1.9830188751220703,-1.5427656173706055,0.23183414340019226,-0.6311604976654053,0.3799302577972412,-0.8236967325210571,1.050615668296814,1.5386247634887695,0.47771960496902466,-0.6649323105812073,0.5152016282081604,-0.02669331431388855,0.6340767741203308,0.6545892953872681,-0.7708147764205933,-2.9640798568725586,-0.702445924282074,-1.1921032667160034,-0.7006648778915405,0.24749338626861572,0.5746971964836121,-0.147581547498703,0.4199710488319397,-0.7432422637939453,-0.7258676290512085,1.8602198362350464,-0.5785152912139893,0.9948312640190125,0.3843695819377899,0.5668622851371765,-1.1774368286132812,0.6439471244812012,-1.3198330402374268,1.5535780191421509,0.6805360913276672,1.5700045824050903,0.10640353709459305,-0.23716901242733002,-0.31154465675354004,0.2793353497982025,-0.012329690158367157,0.5836579203605652,-0.5455935001373291,0.5039073824882507,0.09946010261774063,-0.16332179307937622,3.2629966735839844,-0.43533721566200256,2.83888840675354,0.27727413177490234,0.07751145213842392,-1.4763177633285522,-0.09205204248428345,-2.209315061569214,-0.8203089833259583,-0.28363022208213806,-2.0892481803894043,-1.2665635347366333,0.1683356761932373,-1.1805676221847534,-0.6901506185531616,0.19781243801116943,1.0699132680892944,1.4627784490585327,-0.8892143964767456,0.04799835383892059,0.6543484330177307,-0.1925922930240631,-1.0930306911468506,0.6555593013763428,0.32476019859313965,0.8103779554367065,-0.2681785225868225,0.6907471418380737,0.10506534576416016,2.096646785736084,1.5792125463485718,2.03939151763916,0.4248257577419281,-1.8300117254257202,-0.24647007882595062,-0.2813537120819092,-0.25165536999702454,-1.0204697847366333,-1.044156551361084,-0.5617541074752808,-2.345660448074341,0.6132646799087524,-0.8793306350708008,0.4648445248603821,-1.252573847770691,-0.5777194499969482,2.2893521785736084,-0.644106388092041,1.7539047002792358,-0.9196034073829651,-0.8024277091026306,0.11059276014566422,1.4424041509628296,2.168654680252075,2.1241419315338135,0.7654362320899963,2.317065715789795,-0.5217055082321167,2.95880389213562,2.206191062927246,4.032697677612305,0.8106862902641296,-2.529906749725342,-1.5511996746063232,-0.09445105493068695,0.07090271264314651,1.1852600574493408,0.3126368820667267,0.07989120483398438,1.0240211486816406,-0.9661918878555298,-1.7327172756195068,0.14589542150497437,1.149813175201416,0.6082504987716675,1.361880898475647,0.5965375304222107,-1.5673421621322632,0.9715864658355713,0.34504905343055725,0.8681151270866394,1.3379708528518677,1.582130789756775,1.795061707496643,1.169772744178772,0.8775461912155151,0.2466534674167633,0.57138991355896,1.771032691001892,0.39638128876686096,0.12999004125595093,-0.849421501159668,-1.402487874031067,0.8823695778846741,-0.16293269395828247,-0.7225965857505798,-0.030201416462659836,-1.239986777305603,0.304660439491272,-0.27881860733032227,-0.4842873513698578,-0.3707703948020935,2.450342893600464,2.361121892929077,0.9824994802474976,0.17158813774585724,0.7595233917236328,0.7562924027442932,1.678893804550171,1.2200831174850464,0.5009780526161194,2.073805332183838,-0.3206036388874054,-0.29291030764579773,0.02951456792652607,1.8088890314102173,0.9176972508430481,0.15259012579917908,-0.8856174349784851,0.8443118333816528,0.053999364376068115,-0.07911208271980286,1.1238481998443604,-0.3045644462108612,-0.4608638882637024,0.585671067237854,-0.025347135961055756,-0.38454219698905945,0.21012085676193237,-0.20961026847362518,-1.8364193439483643,0.04604470729827881,-1.7886152267456055,-1.9713842868804932,-0.37758445739746094,-0.894801139831543,0.46064382791519165,0.3162689507007599,-0.37950599193573,0.7476995587348938,-0.43926700949668884,-0.218397319316864,0.10858196765184402,1.0394822359085083,1.135115146636963,-0.6870471835136414,0.20248456299304962,-0.20247791707515717,-0.3093068301677704,1.380077600479126,0.5587414503097534,1.4198113679885864,-0.4367358386516571,-0.22878161072731018,-0.051460593938827515,0.08596457540988922,-0.4371713399887085,0.4024828374385834,1.4621161222457886,-0.7562689781188965,-0.40309375524520874,-0.48302483558654785,2.391026735305786,-1.0872141122817993,2.4197161197662354,-0.5095442533493042,-0.03552085533738136,-0.6735191941261292,-0.7822021842002869,-0.44588205218315125,1.1336160898208618,-0.501093327999115,-0.3640742301940918,-1.005610466003418,-0.17930924892425537,-0.647296130657196,0.823546290397644,0.8675806522369385,0.25111645460128784,0.13513678312301636,-0.24332748353481293,0.751400887966156,0.44044482707977295,1.1648190021514893,-0.8986301422119141,1.038023591041565,-0.9308205246925354,0.7751045823097229,0.08561277389526367,-1.5666884183883667,-0.8756951093673706,0.19203218817710876,0.22574792802333832,-0.4989410936832428,-1.8545756340026855,-0.11889220029115677,0.17627672851085663,0.5274333953857422,0.8183429837226868,-0.3180699348449707,0.4248252213001251,1.0072569847106934,0.6475436091423035,-1.0853221416473389,-0.12233287841081619,0.07065679877996445,-1.4061721563339233,0.7177807092666626,-0.7043657302856445,-0.38128361105918884,-0.6497223377227783,-0.7387667298316956,-0.3158559501171112,-1.6278716325759888,-1.3769996166229248,0.03233219310641289,-1.3598254919052124,1.7745920419692993,2.919196844100952,0.1742900311946869,0.4255501329898834,1.591307520866394,-1.7263672351837158,0.14584799110889435,-0.9824292659759521,2.0490400791168213,1.341191053390503,0.37129512429237366,1.235640048980713,0.6188384294509888,-1.2397555112838745,1.3986841440200806,0.3880804181098938,0.4412377178668976,-0.6004826426506042,-1.0810894966125488,0.7917131781578064,-0.7111752033233643,-1.1851807832717896,0.8138717412948608,-1.712278127670288,0.0741385743021965,-0.017995204776525497,1.349805235862732,-0.09012090414762497,-0.08016087114810944,-0.02539188414812088,-1.1932084560394287,0.20711438357830048,-0.8525798320770264,-1.4846019744873047,0.5119717717170715,-0.14970877766609192,1.4872453212738037,-0.26070132851600647,1.436890721321106,0.3954555094242096,1.0335731506347656,0.13629497587680817,1.5719397068023682,1.12351655960083,1.6093717813491821,-0.17754900455474854,0.19242903590202332,1.2319029569625854,-0.6716510653495789,1.1196273565292358,-0.004078195430338383,-0.8128318190574646,-0.11273381859064102,0.38000917434692383,1.208410620689392,-0.5897822380065918,-0.43382593989372253,-0.26344993710517883,-1.3650991916656494,1.467746615409851,-1.5528764724731445,-1.1115704774856567,-0.04082902520895004,-2.1651816368103027,-0.5720356702804565,0.3961314857006073,0.25013667345046997,0.2284296452999115,0.3090627193450928,0.0963553935289383,-0.3913362920284271,-1.000187635421753,0.6274029016494751,0.8571527004241943,0.08345327526330948,-0.7569348812103271,0.490153968334198,-1.0832245349884033,-1.575924277305603,-0.10514354705810547,0.3828527629375458,-1.1932518482208252,-0.43839409947395325,1.5992108583450317,-0.24635909497737885,1.4439043998718262,0.24253295361995697,-0.08786379545927048,0.3219694197177887,-1.0411169528961182,1.0479580163955688,0.6420583724975586,-0.6713629364967346,-1.2074363231658936,-0.0862639844417572,0.6127945780754089,0.7334725856781006,0.0993841290473938,-1.2406501770019531,1.266836166381836,0.4220973253250122,-0.06630223989486694,-1.1532105207443237,0.46420568227767944,-0.5010354518890381,-0.13459518551826477,-0.13644061982631683,1.1376454830169678,-0.6509816646575928,1.1352685689926147,-0.5555944442749023,0.05968701094388962,-0.07864020764827728,1.0356580018997192,-0.9622989892959595,-0.6996970176696777,0.23222337663173676,0.41576191782951355,-1.413224697113037,0.6087926626205444,-1.2248289585113525,0.7506840825080872,0.5085231065750122,-0.9701064229011536,0.5806100368499756,-0.5726649165153503,0.336098313331604,-1.512209177017212,0.09034055471420288,0.8495671153068542,0.37834450602531433,0.9182114005088806,-1.4070430994033813,-0.7781674265861511,-1.0506585836410522,-0.6914101839065552,0.5135000348091125,-0.8383237719535828,1.2670059204101562,1.419542908668518,0.8763179183006287,-0.4609536826610565,1.1302341222763062,0.5512387752532959,-0.25634539127349854,-0.8162307739257812,-0.44920796155929565,-0.28889432549476624,0.0885760709643364,0.6353656649589539,-0.07037408649921417,1.8642785549163818,-0.8686162233352661,-0.5425946116447449,-0.11381874233484268,-0.7739039659500122,1.1409965753555298,0.2514294385910034,-0.44821760058403015,0.40254560112953186,-0.5914208292961121,0.7376863956451416,0.735538125038147,-0.0843074843287468,-1.3815183639526367,-1.972091794013977,-0.35420912504196167,-0.917820394039154,-0.4188237190246582,-0.18500478565692902,-0.09523776173591614,-1.0517992973327637,-0.6707029938697815,-0.8277930617332458,0.16579891741275787,-0.2826727032661438,0.669685959815979,0.07916077226400375,-1.2628169059753418,-1.2250561714172363,-0.7899882793426514,1.3213438987731934,-0.21648773550987244,0.017471496015787125,-0.8211769461631775,1.4154239892959595,2.0226643085479736,-0.3157968819141388,-0.4999254643917084,-0.6772780418395996,0.2643142342567444,0.8915738463401794,0.4040195643901825,-0.9772390723228455,-0.3352440297603607,-0.06256497651338577,-0.6337292790412903,-1.1188452243804932,0.39685550332069397,-2.649675130844116,0.5410667657852173,-1.311905860900879,-1.1147477626800537,0.08261209726333618,-1.6085466146469116,-0.14389261603355408,0.16513697803020477,0.7792078852653503,-0.7442054152488708,1.6770219802856445,0.8975626826286316,-0.5660237669944763,0.2555252015590668,0.5828519463539124,0.6326490044593811,-0.620335578918457,-0.34530186653137207,0.43490806221961975,-0.6723514795303345,-0.7783820033073425,0.39922478795051575,1.0680817365646362,0.7937275767326355,-0.9074668288230896,1.1332156658172607,0.5110118389129639,-0.1313551962375641,-0.3378983736038208,-0.8145015239715576,-0.732407808303833,2.2144229412078857,-0.10676786303520203,-1.1704742908477783,-1.3182752132415771,-0.45381608605384827,-0.11261826753616333,-0.9735434055328369,0.35839974880218506,-0.0811927393078804,2.0577313899993896,-0.5403085947036743,2.4434008598327637,1.97708261013031,-0.45367884635925293,1.3127986192703247,-0.4409310817718506,0.24413061141967773,-0.010800990276038647,-1.3246384859085083,0.10741304606199265,0.48503732681274414,-0.7804674506187439,-1.3698433637619019,0.7221495509147644,0.14475838840007782,0.30477067828178406,0.6445444822311401,0.2611319124698639,-0.26186999678611755,0.9810879230499268,-0.27460312843322754,-1.4158862829208374,0.17091545462608337,0.9339218139648438,-0.26824501156806946,0.6243219971656799,-0.014848104678094387,-2.558678388595581,0.1737656593322754,-0.1540735363960266,0.04004192352294922,-2.449599266052246,-0.633405864238739,-1.4859102964401245,0.4349762797355652,-1.3074599504470825,1.7373713254928589,-1.7614887952804565,2.940687894821167,-0.9802439212799072,1.0353312492370605,0.8453003764152527,-0.34168362617492676,-0.2836449146270752,-0.04851091280579567,-0.029252519831061363,0.9777329564094543,-0.15838408470153809,-0.9511265158653259,-0.059294842183589935,0.41694825887680054,-2.1147890090942383,0.6040043234825134,-1.1021668910980225,-0.15392722189426422,-0.15810035169124603,-0.3460363447666168,-0.8002707958221436,0.6058411002159119,-0.1322854608297348,-0.6487592458724976,1.5582951307296753,1.6183116436004639,0.1706385761499405,0.11181028187274933,0.3584105968475342,1.303903579711914],[-1.4467192888259888,0.9948313236236572,0.4766477942466736,-0.15391457080841064,-1.0437169075012207,-0.42915403842926025,0.39664411544799805,-0.4007653295993805,1.1670196056365967,-0.49034783244132996,0.13016746938228607,-0.2708529531955719,-1.200822353363037,-0.05773850902915001,-0.737900972366333,-0.026114370673894882,-0.45191490650177,1.2644187211990356,0.9242438077926636,-0.006342312786728144,0.009892363101243973,-1.522446632385254,1.2352476119995117,-0.4118635356426239,-1.7741310596466064,-0.987189769744873,-0.17885161936283112,1.008622169494629,1.6927777528762817,-0.39671197533607483,-0.46472838521003723,-0.963768720626831,-0.2286875694990158,0.1165325790643692,0.9758703708648682,0.05733778327703476,-1.679527997970581,0.8881328701972961,1.7564697265625,0.37538328766822815,2.583562135696411,1.0241798162460327,0.7259071469306946,0.5827039480209351,-0.799512505531311,-1.0371156930923462,-1.4676625728607178,1.5914169549942017,-1.4514151811599731,1.3486011028289795,-0.09034037590026855,-1.6288248300552368,0.9098038673400879,0.056969426572322845,-1.535272479057312,-0.15200462937355042,-0.3079693019390106,-1.4053196907043457,-0.13940200209617615,-0.3998008966445923,1.0598440170288086,1.3125972747802734,-2.323890209197998,0.7258915901184082,0.10059452056884766,-0.03418837860226631,-1.7312953472137451,-0.4368136525154114,0.21132199466228485,0.08243817090988159,0.8568373918533325,-1.5685416460037231,-0.5679579973220825,0.7830089926719666,0.6080304384231567,0.677448034286499,-0.17510433495044708,-0.4590683877468109,-0.4082860052585602,-0.6506448984146118,-0.5976412296295166,-0.28885865211486816,-1.0886768102645874,1.190536618232727,-0.7611745595932007,-1.441157341003418,-1.0316336154937744,0.8664024472236633,0.643652081489563,1.2664549350738525,-0.32259321212768555,-0.4203881025314331,1.2686758041381836,-0.35239920020103455,-0.7473229169845581,-1.5808342695236206,-0.4718233048915863,1.1353518962860107,0.7259091734886169,0.3764696419239044,-0.2211296707391739,1.3433619737625122,0.6701352596282959,-0.7694926261901855,0.1517055481672287,-2.511547565460205,-1.9048070907592773,0.2639113664627075,-0.05731888487935066,1.4487310647964478,-1.3952771425247192,-1.9911235570907593,-2.3380777835845947,0.5556605458259583,-1.4679062366485596,0.16417686641216278,0.723581850528717,1.327397346496582,-0.9573187828063965,-0.3821350336074829,0.4913780093193054,-0.18363845348358154,-1.3748685121536255,-0.20654624700546265,-0.14970256388187408,-0.14756989479064941,-0.12888997793197632,1.7857588529586792,-0.23714664578437805,-0.5500549674034119,2.0148277282714844,1.4143449068069458,-0.8298066258430481,0.8359974026679993,-0.3596944212913513,0.878089427947998,0.4749334454536438,-0.760621190071106,0.6704327464103699,0.005035385489463806,0.46738970279693604,-0.35704872012138367,-0.9504534006118774,0.5670146942138672,1.9231483936309814,0.10869432985782623,1.2162901163101196,-1.2367814779281616,-0.5820052027702332,-0.1138039380311966,-0.433685839176178,0.5847806334495544,0.26951220631599426,0.8902349472045898,-0.14703994989395142,1.1869421005249023,-0.3726177513599396,-0.3502269387245178,-0.8938363194465637,0.5909342169761658,0.29858583211898804,-0.9397793412208557,-0.2113519161939621,1.5344021320343018,-0.1416088491678238,-0.6709131598472595,0.7232508063316345,-0.43872639536857605,0.40128347277641296,-0.10387314110994339,-0.11264745146036148,0.9575144052505493,0.18235160410404205,-0.7299509048461914,-0.11742716282606125,1.4937551021575928,0.2719809114933014,-0.13605095446109772,-0.40567779541015625,0.3981916308403015,1.9147251844406128,1.6905865669250488,1.6993215084075928,-1.1565324068069458,1.6258673667907715,1.7402974367141724,0.8137246966362,1.0112698078155518,1.6315858364105225,-0.0905371755361557,3.0590689182281494,-0.9567350149154663,0.018494300544261932,-0.3095637559890747,-2.1584434509277344,-2.2032344341278076,-0.8477399349212646,-0.009896880015730858,-1.0518813133239746,0.09666063636541367,0.3603244721889496,0.07291258871555328,-0.47371411323547363,0.32312390208244324,1.1370481252670288,0.761088490486145,1.3519175052642822,0.03288600966334343,-1.1102725267410278,0.530998945236206,1.0191459655761719,0.6942523717880249,-0.8414641618728638,-0.14550770819187164,-1.1681197881698608,-0.5479631423950195,-0.3904168903827667,-2.4654295444488525,0.24117080867290497,0.03341309726238251,0.20086461305618286,1.5161443948745728,-0.6469390392303467,1.4982396364212036,-0.2737879455089569,-0.221247598528862,-1.7818899154663086,-0.531380295753479,1.2811652421951294,-0.29265540838241577,1.6959476470947266,-0.288962721824646,1.1676673889160156,0.67857426404953,0.7187327742576599,-0.1746540367603302,1.0003904104232788,-0.9144573211669922,-0.5060113072395325,-0.5899555087089539,0.1851649433374405,0.7190622687339783,-0.013075804337859154,0.6407279372215271,-1.5761961936950684,0.38818344473838806,0.12136538326740265,-0.09035206586122513,-0.9898099899291992,-0.17951539158821106,1.5485351085662842,0.2187696248292923,0.6191341876983643,-1.8231407403945923,-0.6675985455513,0.6449541449546814,0.8728389143943787,-0.15504315495491028,0.26284080743789673,1.7777372598648071,0.7820143103599548,0.7511858344078064,-0.1986439824104309,-1.2623484134674072,1.522703766822815,-1.157273769378662,1.4934375286102295,1.1863592863082886,-1.0961993932724,-0.14530684053897858,0.49806225299835205,-0.3515331447124481,1.5856086015701294,1.8522849082946777,-1.4755505323410034,-0.17296135425567627,0.5346774458885193,-0.48963332176208496,-0.3248126208782196,1.5199108123779297,-1.5596040487289429,-0.3121882379055023,0.863834023475647,-0.6782965064048767,0.6201204657554626,-0.3073911964893341,-1.2596094608306885,-0.7872954607009888,0.7870774269104004,0.9030265212059021,0.2803049683570862,1.1552287340164185,0.47071072459220886,-0.6068434715270996,0.4807162284851074,0.8835781812667847,-0.3016209900379181,0.43136176466941833,2.928548574447632,0.14314952492713928,-1.2930976152420044,-0.9052071571350098,0.05953357368707657,-0.7218501567840576,0.09641629457473755,-0.38166695833206177,0.2547442317008972,2.45184326171875,-1.817335844039917,-0.5893444418907166,-1.4521621465682983,-0.9497538208961487,0.27936017513275146,1.2326210737228394,-1.4998799562454224,-0.3034391701221466,1.263336181640625,1.0380637645721436,2.866978883743286,0.2285899668931961,-0.8614706993103027,-0.5759114623069763,-0.3858747184276581,1.279410481452942,0.5166690945625305,0.7656151652336121,0.5170583724975586,-0.3392156958580017,0.13290216028690338,-0.4800592064857483,-0.045991018414497375,0.5487362742424011,0.9291863441467285,-0.7557191252708435,-2.068754196166992,1.0789903402328491,0.17599527537822723,-0.5882813334465027,0.6620944142341614,0.5413646697998047,